{"architecture": "mlp", "layers": [{"type": "dense", "input_dim": 11, "output_dim": 64, "activation": "relu", "weight": [[0.1893334984779358, 0.2947385311126709, 0.16780713200569153, 0.22764307260513306, 0.18244513869285583, -0.03221355006098747, -0.07052025198936462, 0.18708491325378418, -0.0938127338886261, -0.0383441336452961, -0.09782464802265167], [-0.8378188014030457, -0.8088576197624207, -0.6500049829483032, 0.17902222275733948, -0.29756811261177063, 0.09805093705654144, -0.260906457901001, -0.12369190901517868, 0.04846072569489479, -0.1666353940963745, -0.1770041137933731], [0.7866130471229553, 0.6915684342384338, 0.22191517055034637, 0.218222975730896, 0.15741777420043945, -0.1829328089952469, -0.028021449223160744, -0.057066358625888824, -0.33454155921936035, 0.007849233224987984, 0.22926850616931915], [-0.6761164665222168, -1.0903615951538086, -1.103452205657959, 0.08717751502990723, 0.01998097449541092, 0.19155627489089966, -0.17304156720638275, -0.017227159813046455, -0.03234773129224777, 0.20918862521648407, 0.11883627623319626], [-0.15262359380722046, -0.06751564145088196, -0.18131300806999207, -0.2874809205532074, 0.26982244849205017, -0.26543664932250977, -0.015687409788370132, -0.18802708387374878, 0.17400015890598297, -0.12122602015733719, -0.0679592490196228], [-0.020133372396230698, -0.11041022092103958, 0.018311336636543274, -0.28884357213974, -0.1479189544916153, -0.10646504163742065, 0.04882756620645523, 0.011341740377247334, -0.07774979621171951, 0.2786238193511963, 0.007350400555878878], [-0.6189826130867004, -0.9518201947212219, -0.6940781474113464, 0.254008948802948, 0.14569005370140076, -0.07099599391222, 0.07554655522108078, 0.3701747953891754, 0.13985885679721832, -0.062105849385261536, 0.007263634819537401], [0.056028883904218674, 0.07909063249826431, -0.16285356879234314, 0.1459776759147644, -0.04172006621956825, -0.07315095514059067, -0.2375599890947342, -0.1925981640815735, 0.15808871388435364, -0.23304928839206696, 0.018478091806173325], [0.39764705300331116, 0.7562747001647949, 0.7456247806549072, -0.19199636578559875, 0.07077541202306747, -0.014079933054745197, -0.24180449545383453, 0.04429873451590538, -0.27152806520462036, 0.31629282236099243, -0.04795720800757408], [-1.3192296028137207, -1.306368350982666, -1.4421374797821045, -0.22142131626605988, 0.13245923817157745, 0.08412419259548187, 0.2813666760921478, 0.16963720321655273, -0.056195374578237534, -0.09097645431756973, 0.13603860139846802], [-0.6696344614028931, -0.7122604846954346, -0.8631789684295654, 0.15933507680892944, -0.03241648152470589, -0.27478957176208496, 0.0809304490685463, 0.2091623693704605, -0.0856851115822792, -0.08359374850988388, -0.20119179785251617], [0.3759867548942566, 0.5543765425682068, 0.5631400942802429, -0.30078834295272827, -0.07452627271413803, 0.1724715381860733, 0.20361751317977905, -0.4636344909667969, -0.3537956178188324, -0.0878215953707695, 0.003105701645836234], [0.43248188495635986, 0.11542578041553497, 0.3256533741950989, 0.045141760259866714, 0.129461407661438, -0.09046072512865067, 0.0824209675192833, -0.3933873474597931, -0.0940917506814003, 0.003997564781457186, 0.04813801497220993], [0.055951979011297226, -0.14488141238689423, -0.10214723646640778, -0.09141471982002258, -0.28139713406562805, -0.26703235507011414, -0.20224341750144958, 0.5866219401359558, 0.2577696144580841, -0.07393767684698105, 0.11195249110460281], [-1.2939058542251587, -0.751865029335022, -1.128869891166687, -0.2620514929294586, 0.22420211136341095, -0.2682744562625885, -0.06442199647426605, 0.19228769838809967, -0.01771576516330242, -0.006221511401236057, 0.014936825260519981], [0.4943275451660156, 0.6211980581283569, 0.7656451463699341, 0.28319376707077026, 0.2784629166126251, -0.10462382435798645, 0.14371395111083984, 0.5164016485214233, -0.20876917243003845, -0.24666467308998108, -0.14974242448806763], [-1.1951613426208496, -1.033929705619812, -1.0962855815887451, 0.06676133722066879, 0.06829679012298584, 0.15711653232574463, -0.26613399386405945, 0.03887321054935455, 0.20658740401268005, 0.0013855684082955122, -0.008577430620789528], [0.1970231533050537, -0.21523568034172058, -0.25216829776763916, -0.09328551590442657, -0.2531788945198059, -0.16378046572208405, 0.09419775009155273, 0.49461477994918823, 0.2750791907310486, -0.2661428451538086, 0.18742074072360992], [0.12285095453262329, -0.010567747987806797, -0.35770994424819946, 0.27594760060310364, -0.0028334190137684345, 0.14000441133975983, 0.2378096580505371, -0.006144080311059952, -0.5539236664772034, -0.0885327085852623, 0.025267669931054115], [-0.02937897853553295, -0.26307451725006104, 0.29431647062301636, 0.004526224453002214, 0.2621687650680542, -0.2566567361354828, 0.14081551134586334, 0.01426802296191454, -0.20603464543819427, -0.01031986903399229, -0.23367175459861755], [0.09752047806978226, -0.2601553499698639, 0.0753910019993782, 0.21149826049804688, -0.19201993942260742, -0.08878840506076813, 0.044051073491573334, -0.03925438970327377, -0.05494002625346184, 0.3145660161972046, 0.2265842705965042], [0.0459432452917099, 0.01850174553692341, -0.09883423149585724, 0.012799860909581184, -0.2553803622722626, -0.04223918914794922, -0.28118863701820374, -0.2598997950553894, 0.040517017245292664, 0.17636626958847046, -0.2492234855890274], [0.39691099524497986, 0.453387051820755, 0.35700687766075134, 0.17321918904781342, 0.14335164427757263, -0.20252244174480438, 0.06295987218618393, -0.2410234957933426, -0.07176825404167175, -0.13587795197963715, 0.0013790298253297806], [-0.6789292097091675, -0.29523688554763794, -0.4032056927680969, -0.13888199627399445, 0.05657216161489487, -0.11584654450416565, -0.20186352729797363, -0.8531883955001831, 0.18056294322013855, 0.2310888022184372, -0.0571025125682354], [0.13558518886566162, 0.12638099491596222, -0.15257464349269867, 0.2523879408836365, -0.17559653520584106, -0.30108916759490967, 0.1683071255683899, -0.023380784317851067, 0.23294156789779663, -0.09105999767780304, -0.29737773537635803], [0.26740762591362, 0.48362913727760315, 0.4063217341899872, 0.14955540001392365, 0.05719127878546715, -0.25922414660453796, 0.2539973258972168, -0.504664957523346, -0.13011890649795532, -0.012092947959899902, 0.1877799928188324], [0.06161125376820564, 0.009305499494075775, -0.2460278570652008, -0.19454766809940338, 0.06495987623929977, 0.26157885789871216, -0.17731651663780212, 0.013307209126651287, -0.0819680243730545, 0.0651809349656105, -0.09882961958646774], [-0.7351948022842407, -0.8117156028747559, -0.787258505821228, 0.20063456892967224, 0.2864327132701874, 0.25688043236732483, 0.21484723687171936, 0.46558305621147156, 0.16962216794490814, 0.17839345335960388, 0.16781140863895416], [-0.1186995804309845, -0.18683867156505585, -0.11675497889518738, -0.22161374986171722, -0.07000540941953659, 0.2857169210910797, -0.0332760214805603, -0.04223289340734482, -0.13684695959091187, 0.14440856873989105, 0.15212440490722656], [0.04898037761449814, 0.16767673194408417, -0.15446354448795319, 0.2990659773349762, 0.09618125855922699, 0.0872989296913147, -0.058895010501146317, 0.44781628251075745, 0.1103874146938324, 0.3013334274291992, 0.0420382060110569], [0.18217363953590393, 0.29118600487709045, 0.011507265269756317, -0.015127957798540592, -0.2824379801750183, -0.2357124537229538, 0.2151903212070465, -0.4054729640483856, -0.10227347165346146, -0.043495457619428635, 0.08918595314025879], [0.00680849002674222, -0.10406198352575302, 0.24323910474777222, 0.039472732692956924, 0.05545160174369812, 0.15980808436870575, -0.2796837091445923, 0.0553145557641983, -0.19538086652755737, 0.366509348154068, -0.19196546077728271], [0.2752035856246948, -0.1357899308204651, 0.3885994553565979, 0.005341087002307177, 0.17865589261054993, 0.037722598761320114, -0.2902218699455261, -0.1364765167236328, 0.013304280117154121, 0.006125133018940687, 0.0939452275633812], [-0.01862865872681141, -0.20021019876003265, 0.1900109499692917, 0.22841452062129974, -0.24022091925144196, 0.23773004114627838, 0.2714292109012604, 0.005061735864728689, 0.1922452300786972, 0.08438555896282196, -0.2560211718082428], [-0.1714206337928772, 0.3422064781188965, 0.17661187052726746, -0.09759633243083954, -0.17054522037506104, 0.24220943450927734, 0.0236198753118515, -0.35173460841178894, 0.20341134071350098, 0.20744016766548157, 0.001375966239720583], [-0.4535199701786041, -0.28306517004966736, -0.0198958907276392, 0.09415253251791, -0.3001871705055237, -0.28390705585479736, 0.2160850465297699, 0.29915258288383484, -0.241461843252182, 0.042272865772247314, 0.13318796455860138], [0.12876145541667938, -0.243439719080925, -0.28339406847953796, 0.06315665692090988, 0.20189398527145386, 0.2756904065608978, 0.251730740070343, 0.1121043786406517, 0.32477685809135437, 0.1090945452451706, -0.1271798014640808], [0.0913681834936142, -0.10340786725282669, 0.17295029759407043, 0.1318868100643158, 0.17331954836845398, -0.028378039598464966, -0.23025386035442352, 0.1394122689962387, 0.023280000314116478, -0.2541534900665283, -0.2987736463546753], [-1.1056612730026245, -0.6670858860015869, -1.116606593132019, 0.12447285652160645, -0.1982923448085785, -0.1548355221748352, 0.09904361516237259, 0.3643799424171448, -0.04122193530201912, -0.1041703000664711, -0.013604036532342434], [-0.8872130513191223, -0.6359385848045349, -0.6190342307090759, -0.1183561235666275, 0.25323304533958435, 0.08974793553352356, 0.005192858166992664, -0.04669434204697609, -0.013134976848959923, -0.015558835119009018, -0.00459220539778471], [0.8908432126045227, 0.7018643021583557, 0.549849808216095, -0.03395383432507515, 0.03622693940997124, -0.04142576456069946, -0.04306052252650261, 0.0212436243891716, -0.31415408849716187, -0.019520137459039688, 0.20649731159210205], [0.23157672584056854, 0.21123827993869781, -0.26786521077156067, 0.24168261885643005, 0.07688815891742706, -0.18107402324676514, -0.18359549343585968, 0.028546137735247612, -0.2992820739746094, 0.020104452967643738, 0.04389619454741478], [-0.2347589135169983, -0.2760050296783447, -0.2978892922401428, 0.05404515564441681, -0.06746553629636765, 0.09435826539993286, 0.11845503747463226, 0.13741537928581238, 0.25001662969589233, -0.05514482781291008, 0.009962990880012512], [0.08122474700212479, 0.23775167763233185, -0.10945427417755127, 0.03879502788186073, -0.11409051716327667, 0.1725824624300003, -0.02409619279205799, -0.280495822429657, -0.0995488241314888, -0.07994783669710159, -0.11196136474609375], [-0.2827969789505005, 0.11576520651578903, -0.0921289399266243, -0.14262792468070984, -0.10488656908273697, 0.19086426496505737, 0.08585107326507568, 0.06941116601228714, 0.11704262346029282, -0.016992749646306038, -0.20908178389072418], [0.39853134751319885, 0.5366398096084595, 0.485183447599411, 0.20164377987384796, -0.22841107845306396, -0.008835029788315296, 0.22914458811283112, -0.2780335545539856, 0.257015585899353, 0.31626203656196594, 0.016236327588558197], [0.03024054504930973, 0.08292880654335022, -0.24184726178646088, 0.015276186168193817, 0.018163878470659256, 0.2718173563480377, 0.02912910468876362, 0.15870438516139984, -0.010301933623850346, 0.05034029856324196, -0.029960790649056435], [0.6149294972419739, 0.8544581532478333, 0.8683424592018127, 0.1576801985502243, 0.26403915882110596, 0.014684170484542847, 0.004840114153921604, -0.3575519025325775, -0.009239735081791878, 0.06868910789489746, 0.04035298153758049], [-0.012085291557013988, 0.28027909994125366, 0.1802888661623001, -0.05258285254240036, -0.22352850437164307, -0.27115869522094727, 0.029143085703253746, -0.15020751953125, -0.07375533878803253, -0.18619319796562195, -0.15064382553100586], [-0.10710112005472183, -0.17674309015274048, 0.3150894343852997, 0.2475016713142395, 0.030534077435731888, 0.049058862030506134, 0.09008831530809402, -0.3279867172241211, -0.04787265136837959, 0.009921885095536709, 0.10281785577535629], [-0.2741478383541107, -0.023552479222416878, -0.29299047589302063, 0.09919776767492294, -0.10864264518022537, 0.2988623380661011, 0.0627388209104538, -0.24227000772953033, 0.06523890793323517, 0.3047032356262207, -0.2682853937149048], [-1.0573937892913818, -0.7611609697341919, -1.0349059104919434, -0.2875535786151886, 0.18989072740077972, 0.006244081538170576, -0.05247613787651062, 0.0868099257349968, 0.008348582312464714, -0.0024504235479980707, 0.24714714288711548], [0.17250514030456543, 0.3360595107078552, 0.4342431426048279, 0.2666398584842682, -0.13490547239780426, 0.009653414599597454, -0.23000021278858185, 0.6632665991783142, -0.26286500692367554, -0.026797909289598465, -0.1414681226015091], [-0.36468037962913513, -0.38257524371147156, -0.12087966501712799, 0.09656264632940292, -0.26570022106170654, 0.00354760535992682, -0.19310876727104187, 0.10889078676700592, 0.2947339415550232, 0.06749691069126129, 0.005325897131115198], [0.2028512954711914, 0.4031306803226471, 0.7249412536621094, 0.17801707983016968, -0.145379438996315, 0.2713763117790222, 0.25752580165863037, -0.04555664584040642, 0.22673730552196503, 0.1060868352651596, 0.22944287955760956], [-1.0486541986465454, -0.9064108729362488, -1.006241798400879, -0.09757566452026367, 0.11345507949590683, -0.23136267066001892, 0.2746630609035492, -0.012525777332484722, -0.10350273549556732, -0.01462256908416748, -0.02422313392162323], [-0.6029008626937866, -0.7385550737380981, -0.34047988057136536, 0.11464612185955048, 0.08936787396669388, 0.1855647712945938, -0.13796396553516388, 0.2132047712802887, 0.188494011759758, 0.13510552048683167, -0.10536009818315506], [-0.002379205310717225, -0.11130136251449585, -0.07757021486759186, 0.24172139167785645, 0.21463283896446228, -0.19838181138038635, 0.014470884576439857, -0.5067622661590576, -0.2652381658554077, -0.04577168822288513, 0.12182509154081345], [0.56019526720047, 0.4873625934123993, 0.3530721366405487, -0.1392323225736618, 0.15975035727024078, 0.23241525888442993, -0.08817420899868011, 0.2624548375606537, 0.00033625116338953376, 0.21027615666389465, 0.2596595585346222], [0.17528407275676727, 0.0020300084725022316, -0.19786466658115387, 0.23044411838054657, -0.11732082068920135, 0.14048731327056885, 0.16790251433849335, 0.31734931468963623, 0.15601637959480286, -0.15545247495174408, -0.20315296947956085], [-0.19850289821624756, -0.3975299000740051, -0.5848090052604675, -0.2543247938156128, -0.23729491233825684, 0.014740600250661373, 0.23040813207626343, 0.3827415108680725, -0.1429082304239273, -0.18366459012031555, 0.17190776765346527], [0.40274009108543396, -0.13482359051704407, 0.12919780611991882, -0.10197005420923233, 0.001723572495393455, -0.11100783199071884, -0.2163771241903305, 0.6721810698509216, 0.12081614881753922, 0.019126227125525475, -0.11241564154624939], [0.06498773396015167, 0.19881896674633026, -0.12180306017398834, -0.013539746403694153, 0.03432656452059746, 0.15739983320236206, 0.111167311668396, -0.48031750321388245, -0.09608887135982513, 0.26183128356933594, -0.0733652412891388], [-0.9505006670951843, -0.854103147983551, -1.1194735765457153, 0.11296525597572327, 0.062376946210861206, -0.057301443070173264, -0.09685228019952774, 0.15504148602485657, 0.062446147203445435, 0.15839728713035583, 0.18641184270381927]], "bias": [-0.28066080808639526, 0.3110225200653076, -0.060577765107154846, 0.08102919161319733, -0.04640202969312668, -0.0067128026857972145, 0.08795887231826782, -0.12212657183408737, 0.15268738567829132, 0.13649700582027435, 0.30389463901519775, 0.22362646460533142, -0.06368605047464371, -0.04687294736504555, 0.12221739441156387, 0.09343381971120834, 0.15311063826084137, -0.17806829512119293, -0.023195398971438408, -0.3012335002422333, 0.2729763388633728, 0.07265307009220123, -0.045393671840429306, 0.11647237092256546, -0.08578839153051376, -0.058412130922079086, 0.2653251588344574, -0.1426762044429779, 0.2651115953922272, 0.19976934790611267, 0.3139686584472656, -0.15957534313201904, 0.0452229380607605, 0.2841324508190155, 0.37833842635154724, 0.29262980818748474, 0.3794514238834381, -0.2931663990020752, 0.13213986158370972, 0.09304634481668472, -0.10723365098237991, 0.366396963596344, -0.16169677674770355, -0.19967752695083618, -0.12536776065826416, 0.06771527975797653, -0.21302498877048492, 0.020006228238344193, -0.1997983753681183, 0.41402319073677063, 0.08936510980129242, 0.0280661229044199, 0.12084156274795532, 0.06028977036476135, 0.0030238470062613487, 0.16035249829292297, 0.18000008165836334, -0.004348818678408861, -0.048985596746206284, 0.21775835752487183, 0.20825274288654327, 0.11290242522954941, 0.22598955035209656, 0.1112581267952919]}, {"type": "dense", "input_dim": 64, "output_dim": 64, "activation": "relu", "weight": [[0.23665566742420197, 0.10805884003639221, -0.29220423102378845, 0.41430404782295227, 0.05542801320552826, 0.08798705041408539, 0.42507249116897583, 0.05582587420940399, -0.15751239657402039, 0.35975658893585205, 0.1192101389169693, -0.24595583975315094, -0.5062865018844604, 0.17712721228599548, 0.4423237442970276, -0.098973847925663, 0.9418398141860962, 0.24577496945858002, 0.05005325376987457, 0.06239496171474457, 0.09315387159585953, -0.009671679697930813, -0.008034735918045044, -0.4187873899936676, 0.07223077118396759, -0.18548047542572021, -0.07414767891168594, 0.22802163660526276, -0.0005852303002029657, 0.14538432657718658, -0.009422613307833672, 0.0681036114692688, -0.12391532957553864, -0.14926278591156006, -0.1523224413394928, 0.1397281140089035, 0.0728161409497261, -0.013733461499214172, 0.46209120750427246, 0.5926597714424133, -0.29238829016685486, 0.052504025399684906, 0.09204263985157013, -0.04230077564716339, 0.05663023889064789, -0.4838164150714874, 0.12097468972206116, -0.6695082783699036, 0.00047026557149365544, -0.07143624126911163, 0.029908811673521996, 0.3850121796131134, 0.06373658031225204, 0.053102023899555206, -0.19457821547985077, 0.6864442825317383, 0.11145180463790894, -0.3011966049671173, -0.07023930549621582, -0.02441861480474472, 0.18829388916492462, 0.13728037476539612, -0.3500232994556427, 0.19435793161392212], [-0.22506007552146912, 0.04827471077442169, 0.11609793454408646, -0.5107561945915222, 0.01151709258556366, 0.14119075238704681, -0.42681875824928284, 0.009886011481285095, 0.13570521771907806, -0.3215685486793518, -0.1354566067457199, 0.12117356061935425, -0.2823690176010132, 0.1862235963344574, -0.8735085725784302, -0.07052545249462128, -1.2101668119430542, -0.04211974889039993, -0.03429518640041351, -0.104593425989151, 0.06884200870990753, 0.1260834038257599, -0.3023359477519989, -0.2672451436519623, -0.07738569378852844, -0.14050665497779846, 0.02722182683646679, -0.3437444269657135, 0.03638339787721634, -0.020495569333434105, 0.1062844768166542, -0.018807338550686836, -0.09208118915557861, 0.18135592341423035, 0.1519160270690918, 0.2185145914554596, 0.07786227017641068, 0.04984806850552559, -0.8964002132415771, -0.5450757145881653, 0.05362857133150101, -0.04601879417896271, -0.05933971703052521, 0.10754093527793884, 0.06737595796585083, 0.10620914399623871, -0.012362372130155563, -0.0161180030554533, 0.04298260062932968, 0.13101939857006073, 0.12299822270870209, -0.14921143651008606, -0.024154096841812134, 0.08975780010223389, 0.0709526389837265, -1.007771372795105, -0.14452913403511047, 0.096925288438797, 0.10351395606994629, 0.02494756318628788, 0.027476545423269272, 0.010124175809323788, -0.007117353845387697, 0.03951011970639229], [-0.26433464884757996, -0.038577284663915634, 0.042668666690588, -0.4711536169052124, 0.11098642647266388, -0.017058316618204117, -0.6316892504692078, -0.009316116571426392, -7.934338646009564e-05, -0.1413266360759735, -0.22113193571567535, 0.1036088764667511, -0.05063951760530472, 0.0747578963637352, -0.7070797085762024, 0.07842299342155457, -0.6896082758903503, -0.1029336154460907, 0.04254204034805298, 0.05967476963996887, 0.20347897708415985, -0.003427608869969845, -0.09591538459062576, 0.2556266188621521, 0.1078014075756073, -0.09450795501470566, 0.004022812936455011, -0.41000571846961975, 0.03953393176198006, 0.03500621020793915, 0.13301417231559753, 0.07939968258142471, 0.078158900141716, 0.1868397742509842, 0.17946192622184753, 0.005623016972094774, 0.06383616477251053, 0.015490099787712097, -0.8528655171394348, -0.10794701427221298, 0.033104006201028824, 0.07275283336639404, 0.06034640967845917, -0.07211610674858093, 0.03624236583709717, 0.14239591360092163, 0.0542156919836998, -0.009887236170470715, -0.14508354663848877, 0.06833953410387039, 0.22190111875534058, -0.07468316704034805, 0.14924828708171844, 0.09772898256778717, 0.020177319645881653, -0.4882824122905731, -0.28340569138526917, 0.07544204592704773, 0.022097110748291016, 0.09867274761199951, 0.06506747752428055, -0.03254837170243263, 0.07416369765996933, -0.20322062075138092], [-0.0006244151154533029, 0.10194972157478333, -0.1989891082048416, 0.3831474483013153, 0.025368839502334595, -0.005865209270268679, 0.26662975549697876, 0.040062710642814636, -0.06393757462501526, 0.2877700626850128, 0.072371706366539, -0.2695748805999756, -0.022577421739697456, 0.16783407330513, 0.42895078659057617, -0.09252239018678665, 0.4527570605278015, 0.15975750982761383, -0.10925552248954773, -0.08498731255531311, -0.0068608359433710575, 0.08785826712846756, -0.11542519181966782, -0.11444355547428131, -0.09385734796524048, -0.0260673388838768, 0.018224745988845825, 0.21012549102306366, 0.09208576381206512, 0.08218006789684296, -0.11891292035579681, 0.01442602276802063, -0.13584917783737183, -0.05322396755218506, -0.09920937567949295, 0.059231292456388474, -0.01898924820125103, 0.026106715202331543, 0.28288784623146057, 0.3423464000225067, -0.08613269776105881, -0.12289778888225555, -0.10837528109550476, -0.09049740433692932, -0.09932777285575867, -0.19332735240459442, -0.08561782538890839, -0.5844609141349792, 0.10052827000617981, -0.13215379416942596, 0.010127890855073929, 0.23986934125423431, 0.10175435990095139, -0.010673846118152142, -0.09887488931417465, 0.30844828486442566, 0.042291924357414246, -0.07115144282579422, -0.09102096408605576, 0.012145139276981354, 0.026133354753255844, 0.12721580266952515, -0.09752527624368668, 0.22732822597026825], [0.5195044875144958, 0.16267342865467072, -0.022745409980416298, 0.4972190856933594, -0.10249614715576172, -0.05285067856311798, 0.5137119889259338, -0.020632058382034302, -0.20913229882717133, 0.3247140049934387, 0.19151198863983154, -0.02111869491636753, -0.2680126428604126, 0.177123561501503, 0.7584020495414734, -0.12564705312252045, 1.1041792631149292, 0.13490527868270874, 0.06119139865040779, 0.08022803068161011, -0.027122922241687775, 0.022969989106059074, -0.6308928728103638, -0.22420677542686462, 0.05660587549209595, -0.3048582375049591, 0.10531733930110931, 0.13566821813583374, -0.046105723828077316, 0.05749707669019699, -0.12593628466129303, -0.010571991093456745, -0.03572887182235718, 0.01783401146531105, -0.047614991664886475, 0.17258423566818237, -0.0060484097339212894, 0.09202763438224792, 0.5589556694030762, 0.7389076352119446, -0.1717940717935562, 0.02769024856388569, 0.04051145911216736, -0.022257700562477112, -0.05436636507511139, -0.2884805500507355, -0.03635198250412941, -0.3568752408027649, -0.11780071258544922, -0.10997281223535538, -0.20478320121765137, 0.31466102600097656, -0.09411919116973877, -0.04072272777557373, 0.07178910076618195, 0.8629674315452576, 0.2538336515426636, -0.03903936594724655, -0.02575554884970188, 0.0038544267881661654, 0.08523552864789963, -0.007902503944933414, -0.04688548669219017, 0.12457980215549469], [-0.005843266844749451, 0.028958573937416077, -0.09246015548706055, -0.011779636144638062, -0.039952486753463745, 0.07338537275791168, 0.05852176249027252, 0.059262946248054504, -0.008901774883270264, -0.09653696417808533, -0.10543781518936157, -0.09517525136470795, -0.04745575785636902, 0.01856839656829834, -0.08716313540935516, -0.06149810552597046, -0.08042208850383759, -0.07746009528636932, -0.06557127833366394, -0.09128211438655853, -0.11606824398040771, -0.017618685960769653, -0.014173224568367004, 0.06580358743667603, 0.07755081355571747, -0.03762812912464142, -0.03341078758239746, -0.07562156021595001, -0.05624622106552124, -0.10429631173610687, -0.03600698709487915, -0.057911574840545654, -0.05123315751552582, -0.11492237448692322, 0.11702491343021393, -0.08237916231155396, 0.10623440146446228, 0.013023898005485535, 0.031835198402404785, -0.00907917320728302, 0.062272801995277405, -0.062498465180397034, -0.10573329031467438, -0.07498984038829803, -0.07844579219818115, 0.09487490355968475, -0.11633440852165222, 0.12115360796451569, -0.10359278321266174, 0.018083617091178894, -0.06219618022441864, -0.06657744944095612, 0.0012076497077941895, -0.10550615191459656, 0.08319328725337982, 0.042769476771354675, 0.06000974774360657, 0.014044150710105896, -0.03135932981967926, -0.04399697482585907, -0.11855322122573853, -0.01055818796157837, -0.09659579396247864, 0.11425639688968658], [-0.15758785605430603, 0.0961744487285614, -0.06061146780848503, -0.44414862990379333, 0.07626351714134216, -0.10694467276334763, -1.1474237442016602, -0.016528204083442688, 0.041440173983573914, -0.12997199594974518, -0.11451936513185501, 0.003559851786121726, 0.013208333402872086, 0.09114981442689896, -1.2244869470596313, -0.0013658702373504639, -1.016008734703064, -0.02485697716474533, 0.16098032891750336, -0.01939377188682556, 0.08925200253725052, -0.018101057037711143, -0.23621639609336853, 0.08586467057466507, 0.02376331388950348, -0.09726076573133469, 0.08424423635005951, -0.5474332571029663, 0.12564827501773834, 0.05088154599070549, 0.07457064092159271, -0.07977651804685593, -0.03138246014714241, 0.05398811772465706, 0.12271443009376526, 0.1219915971159935, 0.12870536744594574, 0.05297905579209328, -1.187711238861084, -0.45435643196105957, 0.06526811420917511, 0.06049901992082596, -0.037632763385772705, -0.010755270719528198, -0.03944864869117737, 0.17647784948349, 0.10870474576950073, 0.05505366995930672, -0.014075995422899723, 0.04002390801906586, 0.23825740814208984, -0.014784421771764755, 0.09069763869047165, 0.07936900854110718, 0.09793663769960403, -0.7052960991859436, -0.349776953458786, 0.10932367295026779, -0.02123829536139965, 0.08859355747699738, -0.019607439637184143, -0.09299924969673157, 0.057692285627126694, -0.08342736959457397], [-0.12908276915550232, 0.35732612013816833, -0.12914922833442688, 0.5398696064949036, 0.065009206533432, -0.11092334240674973, -0.0031684378627687693, 0.11698615550994873, -0.24499018490314484, 0.4632628262042999, 0.396348237991333, -0.01633560098707676, -0.32752737402915955, -0.2559238374233246, 0.8483977317810059, -0.67404705286026, 1.3533965349197388, -0.7018307447433472, -0.01674737222492695, -0.013502344489097595, 0.03344009816646576, -0.09792933613061905, -1.2626557350158691, 0.29733869433403015, -0.036787956953048706, 0.014747251756489277, 0.05763448774814606, -0.31934863328933716, 0.024643925949931145, -0.12632955610752106, 0.02620677463710308, -0.14824441075325012, -0.07500111311674118, 0.03796141594648361, 0.17747925221920013, 0.05498659983277321, -0.0409541055560112, 0.01261739432811737, 0.5042287707328796, 1.1216726303100586, -0.31529128551483154, -0.047557685524225235, 0.014585748314857483, -0.08012643456459045, -0.032083138823509216, -0.21138586103916168, -0.011311628855764866, -0.31821316480636597, -0.012352772988379002, 0.10774746537208557, -0.20678231120109558, 0.19852636754512787, -0.6545398831367493, 0.07458940893411636, -0.21079784631729126, 1.096451759338379, 0.25460124015808105, 0.17222315073013306, -0.18999223411083221, -0.04512818157672882, 0.017251545563340187, -0.4239504635334015, 0.14743255078792572, 0.22109279036521912], [-0.1885191947221756, 0.157850444316864, -0.3273700475692749, 0.4877244830131531, 0.0015083849430084229, -0.11952795833349228, 0.24902001023292542, 0.03922829031944275, -0.2597869634628296, 0.5360847115516663, 0.2274245023727417, 0.04126843065023422, -0.3263836205005646, -0.08534330874681473, 0.9569235444068909, -0.6417647004127502, 1.4739891290664673, -0.24451155960559845, -0.0318807028234005, 0.09379106760025024, -0.12179931253194809, -0.165584534406662, -1.0145370960235596, 0.019857138395309448, -0.07943278551101685, -0.20973503589630127, -0.02207249589264393, -0.02249317243695259, 0.1543649584054947, -0.167079359292984, 0.036613620817661285, 0.09543157368898392, -0.011284642852842808, 0.0029324728529900312, 0.1491634100675583, -0.01368439570069313, 0.07738795131444931, -0.05674523115158081, 0.736746609210968, 0.771767795085907, -0.49841687083244324, 0.08903037756681442, 0.04068022966384888, 0.032860130071640015, -0.10606938600540161, -0.258904367685318, 0.10580960661172867, -0.2775377035140991, -0.08605396747589111, 0.13965024054050446, 0.08510589599609375, 0.2511425316333771, -0.6169469356536865, 0.0450424887239933, -0.09974737465381622, 1.1005804538726807, 0.0817556381225586, -0.014750756323337555, -0.2514946758747101, -0.1142285093665123, 0.1345331072807312, -0.19301222264766693, 0.07828688621520996, 0.11826565861701965], [-0.11102326959371567, -0.08991603553295135, 0.04160536080598831, -0.2986173927783966, -0.05133920907974243, -0.02514643222093582, -1.061146855354309, -0.006349280476570129, 0.0010018929606303573, -0.37989553809165955, -0.14767469465732574, -0.04471872001886368, -0.05002585053443909, -0.13938727974891663, -1.308668613433838, 0.0076531339436769485, -1.2621008157730103, -0.07715564221143723, 0.02650289237499237, -6.760656833648682e-05, 0.08915302157402039, -0.2149500548839569, -0.22303421795368195, -0.004654499236494303, -0.10856959223747253, 0.0577106848359108, -0.07560798525810242, -0.4197993576526642, 0.11072055995464325, -0.12329506874084473, 0.08258810639381409, 0.00632189866155386, 0.008719807490706444, 0.16792741417884827, 0.11302643269300461, 0.006739923730492592, 0.12213992327451706, 0.05116388946771622, -1.2345633506774902, -0.7247704267501831, 0.09038451313972473, 0.12473020702600479, 0.10707567632198334, -0.01628871262073517, 0.11022418737411499, 0.10105397552251816, 0.09153248369693756, 0.1187058687210083, 0.022641604766249657, -0.0250569935888052, 0.15444429218769073, -0.03932536020874977, 0.1218278557062149, 0.0863872617483139, -0.08347059786319733, -0.822595477104187, -0.1254073530435562, 0.13256733119487762, -0.01530024316161871, 0.041602153331041336, 0.10509257763624191, 0.02081582136452198, 0.06542614102363586, -0.05124073848128319], [0.44111722707748413, 0.08532771468162537, -0.21466831862926483, 0.5238708257675171, -0.0893738865852356, -0.014377367682754993, 0.4035925567150116, -0.10481511056423187, -0.02852342650294304, 0.48308488726615906, 0.07094881683588028, -0.3048561215400696, -0.35279151797294617, 0.2543163299560547, 0.6354475617408752, -0.2306537926197052, 0.9850567579269409, 0.12346595525741577, 0.017760930582880974, 0.11543238162994385, 0.12184444814920425, -0.028116783127188683, -0.34455493092536926, -0.50413578748703, -0.0068880170583724976, -0.2707604765892029, 0.08051752299070358, 0.30225563049316406, 0.15764205157756805, 0.08158750087022781, 0.024067288264632225, -0.16082626581192017, -0.1107991486787796, 0.019324034452438354, 0.021841686218976974, -0.028364457190036774, 0.07269196212291718, -0.08326196670532227, 0.5523624420166016, 0.5794678926467896, -0.288141667842865, 0.04506784677505493, 0.05885136127471924, 0.0490252822637558, -0.020356208086013794, -0.37975525856018066, -0.0001688953343546018, -0.5839576125144958, 0.10943648964166641, -0.0948731005191803, -0.13846489787101746, 0.3101122975349426, 0.051833376288414, -0.005176386795938015, -0.16083598136901855, 0.8598023056983948, 0.2669239044189453, -0.2895364761352539, -0.07093451917171478, 0.10806448757648468, 0.1652669757604599, -0.009786599315702915, -0.30547669529914856, 0.26389434933662415], [0.043620914220809937, 0.08085709065198898, -0.05817784368991852, -0.4096869230270386, 0.03461606800556183, -0.13109980523586273, -1.6875427961349487, -0.020982012152671814, 0.028868291527032852, -0.19012907147407532, -0.2689445912837982, 0.14516915380954742, -0.13638754189014435, -0.1354064792394638, -1.5721384286880493, -0.04706401005387306, -1.1396137475967407, -0.017849944531917572, 0.051332395523786545, 0.0994558334350586, 0.14857034385204315, -0.10790320485830307, 0.08846090734004974, 0.30367979407310486, 0.0626259297132492, 0.1886228770017624, 0.19122813642024994, -0.7761662602424622, -0.02659546583890915, -0.02530757710337639, 0.10551939904689789, -0.21813687682151794, 0.10544537007808685, 0.126042902469635, 0.12785454094409943, -0.06796937435865402, 0.16141630709171295, -0.09407465904951096, -1.4060497283935547, -0.6755055785179138, 0.10790550708770752, 0.16049692034721375, -0.09447413682937622, -0.07213574647903442, -0.020513057708740234, 0.11504168063402176, -0.0017036497592926025, 0.07230405509471893, 0.18841153383255005, 0.06712376326322556, 0.16584040224552155, -0.17869073152542114, 0.04231633245944977, 0.008553208783268929, 0.11372552067041397, -0.629583477973938, -0.2511504590511322, 0.29930558800697327, -0.0695357695221901, -0.07996878772974014, 0.04908009245991707, 0.026551853865385056, 0.23648668825626373, -0.13114844262599945], [-0.02439729869365692, 0.1905621886253357, -0.35397806763648987, 0.6186049580574036, 0.12453702092170715, -0.03311741724610329, 0.38981908559799194, -0.02261441946029663, -0.28791090846061707, 0.3538818061351776, 0.09175368398427963, -0.24438853561878204, -0.09396079182624817, -0.04883505403995514, 0.8222225308418274, -0.5765249133110046, 1.2833813428878784, -0.11377663165330887, 0.15150627493858337, 0.06627069413661957, 0.01014829520136118, -0.2645779252052307, -0.3063904643058777, -0.028623385354876518, -0.03454606235027313, -0.17859655618667603, 0.04084523394703865, 0.0883495956659317, 0.20999175310134888, -0.0405089296400547, -0.02311021462082863, 0.02404981106519699, -0.09479550272226334, -0.02010493539273739, -0.020129987969994545, 0.13129356503486633, 0.19697031378746033, 0.1145368218421936, 0.6205087304115295, 0.8009330034255981, -0.48590120673179626, -0.002956532407552004, -0.08616317808628082, -0.12131333351135254, -0.039032310247421265, -0.3865821361541748, -0.011477391235530376, -0.5984152555465698, -0.022907912731170654, 0.0940268412232399, -0.14988690614700317, 0.2980283796787262, -0.39592036604881287, 0.05532669275999069, -0.1476496309041977, 0.9454420804977417, 0.23056694865226746, -0.12983644008636475, -0.20741653442382812, 0.0015698461793363094, 0.16015096008777618, -0.02747245691716671, -0.14714586734771729, 0.23363067209720612], [0.2732425928115845, -0.0445660836994648, 0.030245134606957436, -0.3578343689441681, 0.011296510696411133, -0.12491844594478607, 0.07246879488229752, -0.10474616289138794, 0.12824486196041107, -0.2208430916070938, -0.11700940877199173, -0.2613896131515503, -0.04941943660378456, 0.14423885941505432, -0.2415875792503357, 0.047508031129837036, -0.14203207194805145, 0.20407609641551971, 0.09702429175376892, 0.09096863865852356, -0.17150530219078064, -0.10307414829730988, 0.07628369331359863, -0.08341679722070694, -0.09952652454376221, -0.18229837715625763, -0.2914499044418335, 0.19180236756801605, -0.20507438480854034, -0.03964441269636154, -0.2572142779827118, 0.06684090197086334, -0.13373982906341553, -0.3710169494152069, -0.33752158284187317, -0.16475337743759155, -0.3217763900756836, 0.12110510468482971, 0.06114663556218147, -0.16954520344734192, -0.014432892203330994, -0.11254914849996567, -0.11814071238040924, -0.07239614427089691, -0.11130586266517639, -0.18854986131191254, 0.0525217205286026, -0.07253970950841904, -0.126892551779747, -0.45187050104141235, 0.019591808319091797, -0.1369197815656662, 0.22347140312194824, -0.02716381847858429, 0.031137799844145775, -0.10602135211229324, 0.04850602149963379, 0.024074099957942963, 0.17855526506900787, 0.0695866271853447, 0.06474458426237106, 0.10127458721399307, 0.05059436708688736, -0.05401499569416046], [0.08609829097986221, 0.21947608888149261, -0.38120174407958984, 0.7002847790718079, 0.02614685893058777, -0.07193642854690552, 0.30089500546455383, -0.11170358955860138, -0.2933982312679291, 0.3243491053581238, 0.22894279658794403, -0.20007924735546112, -0.1651626080274582, -0.11488299816846848, 0.7548763751983643, -0.48337626457214355, 1.3119561672210693, -0.209490567445755, 0.1255113184452057, -0.05412176251411438, 0.1199508085846901, -0.24546729028224945, -0.49893274903297424, 0.07963689416646957, -0.12144888937473297, -0.3325599133968353, 0.10391898453235626, 0.07801118493080139, 0.18439438939094543, -0.026537558063864708, 0.012517976574599743, -0.029295243322849274, 0.0032936439383774996, 0.022248191758990288, -0.09016674011945724, 0.15677866339683533, 0.12596648931503296, 0.08901046216487885, 0.6036997437477112, 0.7403695583343506, -0.4187510311603546, -0.00791899859905243, 0.06571294367313385, -0.015861600637435913, 0.10744625329971313, -0.24028217792510986, 0.05326519533991814, -0.559359610080719, 0.09691916406154633, 0.11268512904644012, -0.11043521016836166, 0.2864847183227539, -0.26058143377304077, 0.01638772152364254, -0.1534254103899002, 0.9262526035308838, 0.28874897956848145, -0.006387718021869659, -0.10126559436321259, -0.04216162860393524, 0.1064644530415535, -0.09154082834720612, -0.07469060271978378, 0.3235756456851959], [-0.21086643636226654, -0.13832268118858337, 0.002068015281111002, -0.38608628511428833, 0.12413071095943451, 0.087579645216465, -0.9820082783699036, -0.07705084979534149, -0.025040920823812485, -0.3816356658935547, -0.27937760949134827, 0.14948958158493042, -0.15971821546554565, 0.08114103227853775, -1.260008692741394, -0.013827789574861526, -1.1313570737838745, -0.02453388087451458, 0.045079104602336884, -0.11922329664230347, 0.11125180125236511, -0.1090037077665329, -0.2565794587135315, 0.1643669158220291, -0.10112117230892181, -0.06340967118740082, 0.06811703741550446, -0.4954391419887543, 0.06461752951145172, -0.02104405127465725, 0.09012173116207123, -0.1590498387813568, 0.013556360267102718, 0.08998661488294601, 0.07553674280643463, -0.017114240676164627, 0.10510251671075821, -0.08644945919513702, -1.1393016576766968, -0.6029437184333801, -0.007861968129873276, 0.13413026928901672, -0.003605961799621582, -0.08597065508365631, 0.07555638253688812, 0.06711843609809875, 0.06195884197950363, -0.04111490398645401, 0.1379244476556778, 0.10124620795249939, 0.2687027156352997, -0.16097606718540192, 0.054355889558792114, -0.062392476946115494, -0.0362025685608387, -0.7758511304855347, -0.18562322854995728, 0.09764832258224487, 0.10563656687736511, 0.12538230419158936, -0.008287736214697361, -0.03414241224527359, -0.05986234173178673, -0.014191747643053532], [0.14081956446170807, 0.03842797875404358, 0.08412989228963852, 0.005887783132493496, 0.12048690021038055, -0.10139337182044983, 0.18867464363574982, 0.0955238938331604, 0.1352282613515854, 0.07905426621437073, -0.04586990177631378, 0.09136804938316345, 0.08624609559774399, -0.02911105751991272, 0.3715839982032776, -0.02859128825366497, 0.8639654517173767, -0.06863503158092499, -0.19574405252933502, 0.10955587029457092, 0.05148342624306679, -0.010364789515733719, 0.19047342240810394, 0.006932309363037348, 0.06120969355106354, 0.13846467435359955, 0.1488463580608368, -0.046008266508579254, 0.0833846926689148, 0.07964777201414108, 0.0991647019982338, 0.15971913933753967, 0.17472077906131744, 0.13637211918830872, 0.11093468964099884, 0.13310116529464722, 0.04588550701737404, -0.13110193610191345, 0.37002110481262207, 0.539327085018158, -0.06941751390695572, 0.160659521818161, -0.03312164545059204, 0.12053254246711731, -0.05423407256603241, 0.14442521333694458, -0.06427096575498581, -0.08887968212366104, -0.09499195963144302, 0.30141082406044006, -0.07974423468112946, -0.0032172708306461573, -0.09943569451570511, 0.08774294704198837, 0.01491601299494505, 0.5338827967643738, 0.11844407021999359, -0.028607569634914398, 0.03913081809878349, 0.1862632781267166, 0.1820988804101944, 0.12615741789340973, 0.31005269289016724, 0.05284759774804115], [-0.11253705620765686, 0.027601957321166992, 0.12089981883764267, 0.07746075093746185, 0.05849874019622803, 0.13470321893692017, 0.24857276678085327, -0.11421270668506622, 0.13002490997314453, 0.16922533512115479, 0.02669697068631649, 0.20800648629665375, -0.018891675397753716, -0.025553220883011818, 0.42407843470573425, 0.10590556263923645, 0.9796778559684753, 1.0607767762849107e-05, -0.02231696993112564, 0.043920308351516724, 0.19950981438159943, 0.009449661709368229, -0.02167544513940811, 0.16183927655220032, -0.06558969616889954, 0.15172718465328217, 0.10996054112911224, -0.14494849741458893, 0.01027734111994505, -0.034449126571416855, 0.2224964052438736, 0.0021426572930067778, 0.1460961550474167, 0.16207584738731384, 0.11546652019023895, 0.047300226986408234, 0.1607755422592163, -0.028458908200263977, 0.3680378198623657, 0.8023433685302734, 0.0677117258310318, 0.12437953054904938, 0.1214054673910141, -0.040480613708496094, -0.06984175741672516, 0.12481220811605453, 0.12847967445850372, 0.10829099267721176, -0.028202859684824944, 0.13251635432243347, -0.005373667925596237, 0.010814554058015347, -0.021589959040284157, 0.06867481023073196, -0.010831497609615326, 0.5700089335441589, 0.03444639593362808, 0.022147931158542633, 0.01756666973233223, 0.1767672449350357, -0.01447959803044796, 0.03791727125644684, 0.17943549156188965, 0.12403983622789383], [-0.06956912577152252, 0.038671087473630905, -0.11280880123376846, -0.14260821044445038, -0.010706320405006409, 0.08298102021217346, 0.08792447298765182, -0.011339962482452393, -0.12173866480588913, -0.051093656569719315, -0.05995786562561989, -0.025322342291474342, -0.012498772703111172, 0.021390406414866447, 0.1294022798538208, -0.12948277592658997, 0.1786247044801712, -0.001590330502949655, 0.0279455054551363, 0.0287906676530838, 0.01142624206840992, 0.05297917127609253, -0.06427494436502457, 0.10012591630220413, 0.07618391513824463, -0.07021735608577728, -0.02507518231868744, -0.03449775278568268, -0.07247534394264221, -0.05416209623217583, -0.11813870817422867, 0.028619278222322464, -0.07663987576961517, 0.08002262562513351, -0.13828501105308533, 0.09134406596422195, 0.06821957230567932, -0.1215205043554306, -0.045103125274181366, -0.13277606666088104, -0.27076759934425354, 0.04985758662223816, -0.043447911739349365, 0.09256988763809204, -0.11350943148136139, -0.09819962084293365, -0.07902538031339645, -0.09596938639879227, 0.10286597907543182, 0.0533360056579113, 0.09730120003223419, 0.06079213321208954, 0.08497915416955948, 0.05616156384348869, -0.19426943361759186, 0.009035035967826843, -0.08040793240070343, 0.11613926291465759, -0.036811038851737976, 0.03108600713312626, 0.03616681322455406, 0.0018451622454449534, 0.03276417776942253, -0.07159368693828583], [-0.030235424637794495, -0.14585638046264648, 0.06030687689781189, -0.4364001154899597, 0.016093969345092773, 0.08317234367132187, -0.5051149129867554, 0.08919881284236908, -0.021131716668605804, -0.35950976610183716, -0.24891133606433868, 0.10966973751783371, -0.14890216290950775, -0.11757433414459229, -0.47426581382751465, -0.0451742447912693, -0.49634864926338196, -0.11655058711767197, 0.1871538907289505, -0.06574031710624695, 0.2099900245666504, 0.09855978190898895, -0.2860390245914459, -0.1523066908121109, 0.12476666271686554, 0.03356992080807686, 0.17271439731121063, -0.39214521646499634, 0.22637084126472473, -0.015926118940114975, 0.19290003180503845, 0.024872129783034325, 0.05711415410041809, 0.2699105739593506, 0.15303367376327515, 0.1697666496038437, 0.10507410019636154, -0.047214750200510025, -0.43021732568740845, 0.14587712287902832, 0.0626402273774147, 0.1896767020225525, -0.008667275309562683, -0.06022605299949646, 0.012567400932312012, 0.1228700503706932, -0.09727393090724945, -0.018075302243232727, 0.049717724323272705, 0.17463895678520203, -0.062144435942173004, -0.03346892073750496, -0.07420393824577332, 0.044366709887981415, -0.009033567272126675, -0.24314948916435242, -0.12129748612642288, 0.20617781579494476, 0.07350332289934158, 0.10806632041931152, -0.04885067418217659, 0.1056743636727333, 0.17300812900066376, -0.0956844910979271], [-0.24856002628803253, -0.050314854830503464, 0.06036143749952316, -0.35255318880081177, 0.030923932790756226, 0.1716616451740265, -0.46385493874549866, 0.1005839854478836, 0.009348468855023384, -0.17436501383781433, -0.1406647264957428, 0.05201534554362297, -0.05253489315509796, 0.0815475806593895, -0.8759828805923462, -0.023908669129014015, -0.9232115745544434, 0.03262864798307419, -0.009502775967121124, -0.10274115204811096, 0.0021159695461392403, 0.03364371508359909, -0.23815032839775085, 0.15522538125514984, -0.09771677851676941, 0.002479634713381529, 0.05255712568759918, -0.4109724462032318, 0.07681073993444443, -0.002264173701405525, 0.08402027189731598, -0.034812379628419876, 0.13092069327831268, 0.2589567303657532, 0.21486911177635193, -0.0055357953533530235, 0.06918080896139145, 0.03211100772023201, -0.9051967859268188, -0.1959182620048523, 0.064791738986969, 0.15263721346855164, 0.09860874712467194, -0.0400284081697464, 0.031568899750709534, -0.012089471332728863, -0.025228632614016533, 0.12233485281467438, 0.021423738449811935, 0.14604699611663818, 0.041520118713378906, -0.2408933937549591, 0.06995892524719238, 0.008361870422959328, 0.10220745950937271, -0.6981987357139587, -0.3295191526412964, 0.15735861659049988, 0.0339088998734951, 0.08483755588531494, -0.03820153325796127, 0.07921656966209412, 0.14736808836460114, -0.12459267675876617], [-0.06486687064170837, 0.11536846309900284, 0.005129858385771513, -0.06495296210050583, -0.013599470257759094, -0.11524248123168945, -0.09546919167041779, -0.1088840663433075, -0.08249496668577194, 0.052795711904764175, -0.06429892778396606, 0.028642717748880386, 0.05063832551240921, 0.04708414897322655, 0.10753209888935089, -0.06980409473180771, -0.0659392923116684, -0.07158895581960678, -0.02861562930047512, -0.04896029829978943, -0.111887626349926, -0.09319636225700378, -0.015951750800013542, -0.024677187204360962, 0.06621688604354858, -0.04778910428285599, -0.09063713997602463, 0.031292181462049484, -0.02602165937423706, 0.10312335193157196, -0.027086852118372917, 0.04660426080226898, -0.12785778939723969, 0.06286612153053284, -0.10843601822853088, 0.07001632452011108, -0.1284465491771698, -0.04120965301990509, 0.0273345448076725, -0.04846061393618584, -0.12163572013378143, -0.11463682353496552, 0.06246484816074371, -0.029894232749938965, 0.003988131880760193, 0.09904442727565765, -0.011778414249420166, 0.030821051448583603, -0.041138142347335815, -0.022113969549536705, -0.1009504497051239, 0.04006095975637436, -0.016910895705223083, 0.05474643409252167, -0.010680737905204296, -0.00951596163213253, 0.03127415105700493, 0.1057182177901268, -0.04713762551546097, -0.045328009873628616, -0.10156767815351486, -0.0011673875851556659, -0.04690464958548546, -0.048121269792318344], [0.042938247323036194, -0.041202157735824585, -0.0829598605632782, -0.026135236024856567, 0.061170101165771484, -0.11632359027862549, 0.02815529704093933, -0.0992722362279892, -0.07667845487594604, 0.06533211469650269, -0.11829851567745209, -0.02634890377521515, -0.05558375269174576, -0.11588484048843384, 0.095304936170578, 0.05571180582046509, 0.08914311230182648, -0.0895007774233818, 0.060173556208610535, -0.010808318853378296, -0.08566847443580627, 0.012776359915733337, -0.10335246473550797, -0.08962099254131317, -0.039968207478523254, 0.09657184779644012, -0.025950340554118156, -0.08184033632278442, -0.024702534079551697, 0.09948109835386276, -0.1149427592754364, 0.06041829288005829, -0.05406844615936279, 0.017746539786458015, 0.009790106676518917, 0.03792530298233032, -0.12162283062934875, 0.01634947955608368, 0.10149216651916504, -0.1163838803768158, -0.07760782539844513, 0.04605460539460182, -0.11674584448337555, 0.08930841088294983, -0.01333165168762207, 0.010350719094276428, -0.10051091015338898, 0.11464986950159073, -0.044054821133613586, -0.11568659543991089, -7.34180212020874e-05, 0.046331748366355896, -0.06022828817367554, 0.019830569624900818, 0.015000707469880581, 0.12318219244480133, -0.06516525149345398, -0.01150752604007721, 0.05544256418943405, -0.0593285895884037, 0.03361871838569641, 0.07904808968305588, -0.04197026789188385, -0.10296714305877686], [-0.06456618010997772, -0.11235316097736359, 0.0657435804605484, -0.23556922376155853, 0.07852999866008759, -0.15827146172523499, -0.831612229347229, 0.0403292179107666, 0.01250129472464323, -0.1964133232831955, -0.36506912112236023, 0.11013095080852509, -0.017413098365068436, 0.07598932832479477, -0.7260188460350037, -0.030590670183300972, -0.46170923113822937, -0.17280907928943634, 0.1422777622938156, 0.007149994373321533, 0.07622300088405609, -0.2653607428073883, -0.21778157353401184, 0.33774253726005554, 0.031511545181274414, -0.10531740635633469, 0.04957309737801552, -0.39586949348449707, -0.06676424294710159, 0.14461499452590942, 0.023439619690179825, 0.032331086695194244, -0.018276361748576164, 0.16916978359222412, 0.20510651171207428, 0.02539403922855854, 0.14057457447052002, -0.006514990236610174, -0.6922757625579834, 0.06260934472084045, -0.09696713089942932, 0.08503764867782593, -0.1022392064332962, 0.0003221184015274048, 0.12161619961261749, -0.02514416165649891, 0.06417348980903625, -0.014349470846354961, 0.1228722482919693, 0.10677424818277359, 0.05460212752223015, -0.11208713799715042, 0.13098016381263733, -0.10896064341068268, 0.0638873353600502, -0.31634092330932617, -0.2585216760635376, -0.018678199499845505, 0.061063751578330994, -0.07393886893987656, 0.08925261348485947, -0.011021405458450317, 0.010431547649204731, -0.2552284598350525], [0.04637246951460838, 0.2871701419353485, -0.19534634053707123, 0.6502876281738281, 0.013608306646347046, 0.0991545170545578, 0.45198190212249756, -0.09461753070354462, -0.1600654423236847, 0.5975263118743896, 0.2672525644302368, -0.13126033544540405, -0.18728388845920563, -0.017012612894177437, 0.9426742196083069, -0.6129565238952637, 1.4484144449234009, -0.27585306763648987, -0.03362269699573517, 0.02233758568763733, -0.0209667906165123, 0.006496125366538763, -0.6968274116516113, -0.08928391337394714, -0.10248327255249023, -0.18443351984024048, -0.011637498624622822, -0.11894332617521286, 0.1724558174610138, -0.09435177594423294, -0.055423855781555176, -0.05144859850406647, 0.07410009205341339, 0.12797093391418457, -0.007310846354812384, 0.010170784778892994, 0.2146834284067154, -0.10819603502750397, 0.5314326882362366, 0.7635220289230347, -0.2264561653137207, -0.03469862788915634, -0.02454836666584015, -0.11509054899215698, -0.008384451270103455, -0.2704891264438629, 0.004531966522336006, -0.5555538535118103, -0.042530689388513565, 0.08304803818464279, -0.14651080965995789, 0.2170775830745697, -0.4459937512874603, 0.04327671229839325, -0.11760373413562775, 1.0355925559997559, 0.18805578351020813, 0.012853040359914303, -0.22502842545509338, -0.005104237236082554, 0.05404089391231537, -0.17742612957954407, -0.02812669426202774, 0.23032692074775696], [0.16254857182502747, 0.23390917479991913, -0.17499840259552002, 0.39460933208465576, -0.06798309087753296, 0.037788040935993195, 0.29511505365371704, 0.10551784932613373, -0.16582682728767395, 0.4220443069934845, 0.21731939911842346, -0.3639334440231323, -0.17229998111724854, 0.2074480503797531, 0.5622613430023193, -0.08194052428007126, 0.9534017443656921, 0.11375001817941666, -0.035396140068769455, -0.061432674527168274, 0.1279207319021225, 0.1640874594449997, -0.08934134244918823, -0.18508034944534302, -0.12436766922473907, -0.23988553881645203, -0.08249980956315994, 0.31514498591423035, -0.08068889379501343, 0.1533101201057434, -0.19127686321735382, -0.11191223561763763, -0.0626741573214531, -0.2618328928947449, -0.1152101680636406, -0.02107183448970318, -0.049502138048410416, 0.1031823456287384, 0.5505163073539734, 0.6155759692192078, -0.1312416046857834, -0.09906089305877686, -0.09657412767410278, -0.030095592141151428, -0.08424040675163269, -0.36736932396888733, 0.07489036023616791, -0.8275101780891418, 0.12448861449956894, 0.06201254948973656, 0.12040954828262329, 0.16870111227035522, 0.007436167448759079, 0.08623527735471725, -0.1857122778892517, 0.5849558711051941, 0.1433948576450348, -0.05813758075237274, 0.019526617601513863, 0.06232437863945961, 0.038405273109674454, 0.11250859498977661, -0.08984873443841934, 0.15114304423332214], [-0.15353891253471375, 0.384567528963089, -0.14184975624084473, 0.3720130920410156, 0.06306254863739014, -0.056274641305208206, 0.12995922565460205, -0.08540448546409607, -0.22335678339004517, 0.39615398645401, 0.37332600355148315, -0.04280494153499603, -0.06849563121795654, -0.4217889606952667, 0.7904379963874817, -0.6168393492698669, 1.0898455381393433, -0.4502944052219391, 0.09803560376167297, -0.11156876385211945, 0.08071794360876083, -0.22465181350708008, -0.966306746006012, 0.8387651443481445, 0.053586408495903015, 0.11799386143684387, 0.11098803579807281, -0.2228616178035736, 0.00232946639880538, -0.08693523705005646, 0.10603613406419754, -0.16568142175674438, -0.09982971847057343, 0.0013378815492615104, -0.19482246041297913, -0.08379281312227249, -0.1690983921289444, 0.10254144668579102, 0.345405250787735, 1.2808867692947388, -0.171819806098938, 0.017802372574806213, 0.06721153855323792, -0.013960227370262146, 0.12127810716629028, -0.25231093168258667, 0.03882245719432831, -0.17174366116523743, -0.003508276306092739, 0.16815368831157684, -0.21469230949878693, 0.3277401030063629, -0.43483543395996094, -0.18034221231937408, -0.3285118341445923, 1.0924580097198486, 0.17788845300674438, 0.47006717324256897, -0.1812468320131302, -0.13456833362579346, -0.05307748541235924, -0.4473492503166199, 0.22856712341308594, 0.14054566621780396], [0.11958387494087219, 5.7733221183298156e-05, -0.11087989807128906, 0.10638252645730972, -0.053462639451026917, 0.055341675877571106, -0.04721580818295479, 0.11601272225379944, -0.038111500442028046, 0.06524384766817093, -0.09659704566001892, -0.04516598954796791, 0.03899797797203064, -0.10775769501924515, -0.04644842445850372, -0.09580378234386444, -0.13304361701011658, 0.058083679527044296, -0.01936115324497223, -0.0012760758399963379, -0.04255612939596176, 0.05476023256778717, -0.06520061194896698, -0.020926550030708313, 0.09068278968334198, 0.0796436071395874, -0.04122374579310417, 0.017956368625164032, -0.09864574670791626, 0.10333482921123505, 0.10100753605365753, -0.08409516513347626, 0.030365819111466408, -0.004575536586344242, -0.0787157341837883, -0.08269846439361572, -0.005867687053978443, 0.119858518242836, -0.046937018632888794, 0.04867878556251526, -0.009510633535683155, 0.05718923732638359, 0.060304850339889526, -0.06564711034297943, 0.06995245814323425, -0.009965321980416775, 0.017220884561538696, -0.12962113320827484, -0.07750553637742996, 0.09742753952741623, -0.03575789928436279, -0.1058986634016037, -0.03701277822256088, -0.03229832276701927, -0.08202429115772247, 0.11900700628757477, 0.047198593616485596, -0.049015291035175323, -0.022326067090034485, -0.12130288779735565, 0.030550280585885048, -0.014454237185418606, -0.011316567659378052, -0.1050897017121315], [0.021946609020233154, 0.0797947496175766, 0.08656717836856842, -0.10267964005470276, 0.05075295269489288, 0.10914558172225952, 0.07357446849346161, -0.049314871430397034, -0.01405458152294159, 0.050845324993133545, -0.07942362129688263, -0.119910329580307, 0.015872180461883545, 0.036131709814071655, -0.03164534270763397, -0.013272583484649658, 0.03029969334602356, 0.1084868460893631, 0.04739348590373993, 0.10079176723957062, 0.07173705101013184, -0.00519523024559021, 0.06104035675525665, -0.12285265326499939, -0.027051299810409546, 0.07936716079711914, 0.08270354568958282, -0.10096262395381927, -0.10638043284416199, -0.06374651193618774, 0.03375515341758728, 0.06808072328567505, -0.11004553735256195, -0.10012204945087433, 0.02855376899242401, -0.006603449583053589, 0.009236827492713928, 0.11606447398662567, -0.047776058316230774, 0.03729662299156189, -0.10051634907722473, -0.11682265996932983, -0.0780743658542633, -0.0017794370651245117, 0.11310262978076935, -0.07721182703971863, 0.028310060501098633, 0.015441253781318665, -0.037374839186668396, 0.052955180406570435, -0.11858312785625458, 0.02072542905807495, -0.02252858877182007, 0.01822999119758606, -0.06504939496517181, -0.023321926593780518, -0.05524936318397522, 0.08143950998783112, -0.06582893431186676, 0.001701459288597107, -0.027843669056892395, 0.07021984457969666, 0.007453814148902893, -0.1044798493385315], [-0.04884329438209534, -0.11187571287155151, 0.05141228437423706, -0.057425037026405334, -0.09840583801269531, 0.005038931965827942, -0.010247200727462769, 0.05425301194190979, -0.11113403737545013, 0.09015224874019623, 0.003876596689224243, -0.10784892737865448, 0.01186344027519226, -0.1124415248632431, 0.039492279291152954, 0.009045600891113281, -0.054083794355392456, -0.01065431535243988, 0.045048683881759644, -0.061677366495132446, -0.08933652937412262, 0.04868358373641968, -0.07014091312885284, 0.025159165263175964, 0.08643589913845062, -0.06561186909675598, 0.11348985135555267, -0.005097582936286926, -0.0807693749666214, -0.06938843429088593, -0.0095701664686203, 0.12369179725646973, -0.06411696970462799, 0.11782950162887573, -0.02864670753479004, -0.12311707437038422, 0.045438870787620544, -0.12272980809211731, 0.045071929693222046, -0.11549676954746246, -0.06935940682888031, -0.04627728462219238, -0.10629317164421082, 0.031298890709877014, -0.05162349343299866, 0.08408716320991516, 0.12192288041114807, 0.032431378960609436, -0.11894014477729797, 0.002506926655769348, 0.04230819642543793, -0.09681347012519836, -0.08867500722408295, -0.05082963407039642, 0.10355795919895172, 0.11669333279132843, -0.12362881004810333, -0.11746817827224731, -0.08681049942970276, -0.013778626918792725, -0.04530918598175049, 0.05928705632686615, -0.07513107359409332, 0.0722731202840805], [0.4836311638355255, 0.16308018565177917, -0.19905568659305573, 0.5872347354888916, -0.03659415245056152, -0.011921408586204052, 0.43448859453201294, -0.10172516107559204, -0.1811792552471161, 0.36249229311943054, 0.2727815806865692, -0.2727765440940857, -0.3394742012023926, 0.20490650832653046, 0.6320275068283081, -0.14422085881233215, 1.2237169742584229, 0.21521973609924316, -0.08970478177070618, 0.04690183699131012, 0.008616427890956402, -0.056969914585351944, -0.15775707364082336, -0.28102540969848633, 0.11837513744831085, -0.3181535303592682, 0.13412971794605255, 0.24291177093982697, 0.038010306656360626, 0.1085503101348877, 0.03335509076714516, -0.016358403488993645, -0.07208207249641418, -0.1578872799873352, -0.057001564651727676, 0.04792939871549606, 0.1206340417265892, 0.07767243683338165, 0.6373752951622009, 0.7506373524665833, -0.279381662607193, 0.05389358848333359, -0.07395511865615845, -0.08986146748065948, -0.00020003318786621094, -0.38744446635246277, 0.06477322429418564, -0.49445855617523193, -0.13751289248466492, 0.06580838561058044, -0.11076132208108902, 0.3451964557170868, -0.009750599041581154, 0.09251194447278976, -0.04733751714229584, 0.9714447855949402, 0.12727582454681396, -0.21507106721401215, 0.03553732857108116, 0.13793757557868958, 0.1372111737728119, 0.13434791564941406, -0.18785394728183746, 0.3112952411174774], [-0.026236873120069504, 0.012880954891443253, 0.07423050701618195, -0.38048917055130005, 0.017622143030166626, -0.12166820466518402, -1.8132258653640747, -0.0565471351146698, 0.0495094358921051, -0.16761639714241028, -0.246579110622406, 0.06839291751384735, -0.15114223957061768, 0.021987609565258026, -1.3754006624221802, 0.02917296439409256, -1.1471226215362549, -0.05937725305557251, 0.09528778493404388, -0.035260558128356934, -0.03819996491074562, -0.07941784709692001, -0.05928092449903488, 0.040574658662080765, -0.11669208109378815, 0.09916619211435318, 0.1597682237625122, -0.6963046193122864, 0.03525896370410919, 0.08264153450727463, 0.03825904801487923, 0.012276818975806236, 0.09435924142599106, 0.11420443654060364, 0.14205531775951385, 0.12890441715717316, -0.0017798205371946096, 0.09670822322368622, -1.3553712368011475, -0.8642206192016602, -0.103118896484375, 0.1050027459859848, -0.0738082081079483, 0.046469107270240784, -0.08109365403652191, 0.11989988386631012, -0.05462213233113289, 0.1527356058359146, -0.061626534909009933, 0.13443925976753235, -0.2716981768608093, -0.13165785372257233, -0.1303805112838745, 0.012871856801211834, 0.06898263096809387, -0.8153629302978516, -0.34089067578315735, 0.11170496046543121, 0.10750506818294525, 0.015329458750784397, -0.125344380736351, -0.11950132995843887, -0.007545360364019871, -0.09248793870210648], [0.045732252299785614, 0.1745171695947647, 0.06274348497390747, -0.49245548248291016, -0.030503109097480774, 0.003190572839230299, -1.9288007020950317, 0.06877315044403076, 0.07832840085029602, -0.33613720536231995, -0.2850094735622406, 0.1199246346950531, -0.07142936438322067, -0.20851074159145355, -1.527468204498291, -0.005723923910409212, -1.2534269094467163, 0.02008473314344883, 0.06751929223537445, -0.0792451798915863, -0.05014714598655701, -0.12302666902542114, 0.011591034010052681, 0.22359465062618256, 0.008526995778083801, 0.11508053541183472, 0.08113966882228851, -0.8865932822227478, 0.04899236187338829, 0.048254963010549545, 0.18030203878879547, -0.20952963829040527, 0.032677069306373596, 0.0358148030936718, 0.07618141919374466, 0.08300258964300156, 0.042577601969242096, -0.009071508422493935, -1.4017871618270874, -1.0889976024627686, -0.013441886752843857, 0.06794840842485428, 0.07551905512809753, -0.10294242203235626, 0.10126160085201263, 0.05515856668353081, -0.07389481365680695, 0.1686450093984604, -0.1634693443775177, 0.1142352744936943, -0.16059285402297974, 0.029766730964183807, 0.051493849605321884, 0.030258135870099068, 0.06250157952308655, -0.9548789262771606, -0.3732143044471741, 0.2948368787765503, 0.07383400946855545, -0.09456250816583633, -0.047353703528642654, 0.020151861011981964, 0.29469215869903564, -0.08335274457931519], [-0.1002223938703537, -0.12187392264604568, 0.0004485398530960083, -0.017356157302856445, 0.055132851004600525, -0.08542647957801819, -0.04374442994594574, 0.07877451181411743, -0.054183073341846466, 0.040103599429130554, -0.018800346180796623, -0.006291354075074196, -0.07250094413757324, -0.08843405544757843, -0.05549800023436546, 0.09657301008701324, -0.07983513176441193, -0.07207582890987396, 0.015622049570083618, 0.02008827030658722, -0.05895048752427101, 0.10294875502586365, 0.09528468549251556, -0.11773145198822021, -0.06655371189117432, -0.11821870505809784, 0.04651222750544548, 0.0007858127355575562, -0.03148694708943367, -0.09430576115846634, -0.1263817399740219, -0.08646297454833984, -0.042542263865470886, 0.09452354907989502, 0.07307790964841843, -0.1124151274561882, -0.028859559446573257, 0.07604336738586426, -0.025711998343467712, 0.07698006927967072, -0.019819095730781555, 0.016622675582766533, 0.06004789471626282, -0.12367475032806396, 0.10438862442970276, -0.04193434119224548, 0.011151120066642761, -0.0874578058719635, 0.062377944588661194, -0.02176744118332863, 0.12215439975261688, 0.054413069039583206, -0.03174819424748421, -0.1179712638258934, -0.026890147477388382, -0.11218839883804321, 0.12090063095092773, 0.03566254675388336, -0.11063957214355469, -0.002652278169989586, 0.09659162163734436, 0.10985501855611801, 0.012424272485077381, -0.009762820787727833], [0.05657386779785156, 0.04939832165837288, 0.031984806060791016, 0.09206455200910568, -0.1211967021226883, 0.09941218793392181, -0.061341553926467896, -0.035390108823776245, 0.022466987371444702, -0.01773066259920597, -0.12001212686300278, -0.016629748046398163, -0.0009283614926971495, -0.11056222021579742, 0.0784488171339035, -0.0609256774187088, 0.0865592360496521, 0.11362157762050629, 0.10806644707918167, 0.10566750168800354, -0.014011760242283344, 0.0325435996055603, -0.10128220915794373, -0.02475757896900177, 0.0924399346113205, -0.07494859397411346, 0.06014266237616539, -0.006343945860862732, 0.06172701716423035, -0.07402662187814713, -0.02439609356224537, 0.09404061734676361, -0.061393655836582184, 0.08860480785369873, -0.10832829028367996, -0.08974825590848923, -0.09844528138637543, -0.10847806930541992, 0.09754371643066406, -0.06921108067035675, 0.027641665190458298, -0.03874996677041054, -0.09248492121696472, 0.009907931089401245, 0.06350190937519073, -0.09315912425518036, -0.023134782910346985, 0.010108236223459244, -0.10182859003543854, -0.04367401450872421, -0.11009669303894043, 0.0446467250585556, -0.06574717164039612, 0.08162158727645874, 0.0009790211915969849, 0.08166659623384476, -0.04448108375072479, 0.0843459740281105, 0.050697751343250275, 0.03755730390548706, -0.08426754176616669, -0.06898923218250275, -0.01413483452051878, -0.023364175111055374], [-0.07324331998825073, -0.074972003698349, 0.057619914412498474, -0.1108178198337555, -0.07926321029663086, -0.0560791939496994, 0.06517688930034637, 0.011297360062599182, -0.09905391931533813, 0.08310084044933319, -0.10956373810768127, 0.09899181127548218, -0.0748910903930664, -0.12244293093681335, -0.04215043783187866, -0.06629788875579834, -0.12475550174713135, -0.09995944797992706, 0.09590956568717957, 0.014362543821334839, 0.09856484830379486, -0.03824831545352936, -0.044943809509277344, 0.008399426937103271, -0.08265896141529083, 0.07792843878269196, 0.0762946754693985, -0.08388155698776245, -0.01220308244228363, 0.09622833132743835, -0.08898702263832092, 0.09337291121482849, -0.026385590434074402, 0.062227413058280945, 0.013447657227516174, -0.11376358568668365, 0.04967838525772095, -0.09620742499828339, 0.09449975192546844, 0.06648366153240204, -0.07471904158592224, -0.10046836733818054, 0.12272804975509644, -0.08375944197177887, 0.05508807301521301, -0.11643953621387482, 0.07191507518291473, -0.06710705161094666, -0.005337774753570557, 0.04418988525867462, 0.03748977184295654, 0.006742149591445923, 0.0878671258687973, 0.032789647579193115, -0.08900165557861328, -0.04333537817001343, -0.07391363382339478, -0.05700930953025818, -0.07054311037063599, 0.05858546495437622, 0.05434110760688782, -0.005551397800445557, -0.06292888522148132, -0.08027312159538269], [-0.1627761870622635, -0.034415118396282196, -0.03773363679647446, -0.3136986792087555, -0.0355316698551178, -0.17792247235774994, -1.49690842628479, -0.08544006943702698, 0.04029298573732376, -0.2447081208229065, -0.1596551537513733, 0.0662212073802948, -0.17944443225860596, -0.11364425718784332, -1.2854275703430176, -0.04728231579065323, -1.0922271013259888, -0.14770592749118805, 0.15623155236244202, 0.007572472095489502, 0.1066979318857193, -0.2664896249771118, -0.14003977179527283, 0.28929346799850464, 0.1085299402475357, 0.11409113556146622, 0.15649376809597015, -0.5793647766113281, 0.02594880573451519, 0.032281842082738876, 0.1089850589632988, -0.23008160293102264, 0.05135722830891609, 0.0023445410188287497, 0.1503247618675232, 0.061889611184597015, -0.05711904540657997, -0.07859659940004349, -1.2413816452026367, -0.6214208006858826, -0.011752836406230927, 0.05274105444550514, 0.014598682522773743, 0.034702837467193604, 0.09001435339450836, -0.01209796778857708, 0.011524106375873089, 0.13306330144405365, 0.07628762722015381, 0.16005979478359222, 0.17600557208061218, -0.09044100344181061, 0.052012741565704346, -0.02789960987865925, 0.040092483162879944, -0.7086997032165527, -0.20667202770709991, 0.03595393896102905, -0.029031207785010338, 0.03754497319459915, 0.050076037645339966, 0.0610363706946373, -0.004542584531009197, -0.11476950347423553], [-0.0721617341041565, 0.00904768519103527, 0.09663127362728119, -0.106244295835495, 0.06915430724620819, 0.09555506706237793, -0.09256751835346222, 0.022129103541374207, -0.06722041964530945, -0.050282664597034454, 0.05052915960550308, 0.10502246767282486, -0.12883256375789642, 0.0681099146604538, -0.0417894572019577, -0.0545668825507164, 0.027965152636170387, -0.025853531435132027, 0.04142611846327782, -0.017215445637702942, 0.08662886917591095, -0.003926336765289307, 0.07295460999011993, 0.05522671341896057, 0.03888602554798126, 0.02504687011241913, 0.05831930413842201, 0.055132750421762466, 0.028487563133239746, -0.12478693574666977, -0.09330599009990692, -0.030861737206578255, -0.14069576561450958, -0.02250714786350727, -0.06550981849431992, 0.0607038252055645, 0.06039322912693024, -0.04964223504066467, 0.06972409039735794, -0.05072750523686409, -0.02204357646405697, -0.14473067224025726, -0.008834883570671082, -0.08995810151100159, 0.06614723801612854, -0.049831364303827286, 0.10915279388427734, -0.04174831882119179, -0.10861371457576752, 0.05121831223368645, -0.09378138184547424, -0.00591336190700531, 0.07095880806446075, 0.01394142396748066, -0.046428557485342026, -0.008177188225090504, 0.07332193106412888, 0.027176054194569588, -0.009595372714102268, 0.030731039121747017, -0.06706172227859497, 0.040400076657533646, 0.04716877266764641, 0.025403713807463646], [-0.05292239040136337, 0.07095612585544586, 0.06315220147371292, -0.36283624172210693, -0.0009896308183670044, -0.03874215856194496, -0.5165200233459473, -0.03190182149410248, 0.03478613123297691, -0.34039992094039917, -0.324905127286911, 0.17682744562625885, -0.09618779271841049, -0.0009371849009767175, -0.46515488624572754, 0.10165848582983017, -0.6914134621620178, -0.24627406895160675, 0.06801863014698029, 0.04205824434757233, 0.16789433360099792, 0.13178446888923645, -0.37040975689888, -0.19500568509101868, -0.0924902856349945, -0.01760013774037361, 0.15375545620918274, -0.5182597637176514, 0.1777210831642151, 0.037329722195863724, 0.12601706385612488, 0.13092471659183502, 0.08988752216100693, 0.07946332544088364, 0.1825210601091385, 0.07806728035211563, 0.03888392448425293, 0.08419518917798996, -0.5157236456871033, -0.0756475105881691, -0.0849476233124733, 0.03367516025900841, -0.09397903084754944, -0.028118744492530823, 0.08551216125488281, 0.12459592521190643, 0.10303832590579987, -0.04173162207007408, 0.10955700278282166, 0.17592386901378632, 0.20830246806144714, -0.14526991546154022, 0.15401962399482727, 0.1000005379319191, 0.11286227405071259, -0.4280942380428314, -0.3488923907279968, 0.1810176819562912, 0.08790473639965057, 0.17856962978839874, 0.10417667031288147, -0.06532256305217743, 0.06832213699817657, -0.13912996649742126], [-0.016806799918413162, -0.040433406829833984, 0.040095239877700806, 0.019068941473960876, -0.056130826473236084, 0.014584586024284363, -0.055088773369789124, 0.07540932297706604, -0.10418269783258438, -0.0423286110162735, 0.07598146796226501, -0.09506592154502869, -0.05776326358318329, 0.10639044642448425, -0.10328365862369537, 0.04073011130094528, -0.0930933952331543, -0.03991926461458206, -0.0760682076215744, 0.024446412920951843, 0.10104260593652725, 0.10008510947227478, 0.008958199061453342, 0.03398755192756653, 0.0537438690662384, -0.040701642632484436, -0.1029675155878067, -0.09294016659259796, 0.09611786901950836, -0.057357437908649445, -0.019859155640006065, -0.033372655510902405, -0.13423630595207214, -0.059953778982162476, 0.058202072978019714, 0.02778230607509613, -0.04910515248775482, -0.11818075180053711, -0.08442738652229309, 0.057406872510910034, 0.0023064122069627047, -0.024417944252490997, 0.0016213804483413696, 0.02975568175315857, -0.02745036780834198, 0.04058682546019554, -0.002268284559249878, -0.0517437644302845, -0.06723307073116302, -0.05530819296836853, 0.08153931796550751, -0.0418282151222229, 0.045718323439359665, -0.08679227530956268, -0.0039009738247841597, 0.10525524616241455, -0.09247386455535889, -0.10613282024860382, -0.028383204713463783, -0.06503347307443619, -0.06282514333724976, 0.11144591122865677, -0.055815935134887695, 0.04624767601490021], [-0.23177601397037506, 0.13790713250637054, -0.24162837862968445, 0.3912874460220337, -0.08102937042713165, 0.11711066961288452, 0.5200712084770203, -0.07899303734302521, -0.2889162003993988, 0.2722018361091614, 0.24730756878852844, -0.33995485305786133, -0.3994482159614563, 0.12090326845645905, 0.4941696524620056, -0.033707063645124435, 0.528026819229126, 0.15312600135803223, -0.07179095596075058, 0.027514412999153137, 0.02164573222398758, 0.005666904151439667, 0.010690873488783836, -0.10647713392972946, 0.0027955174446105957, -0.11827902495861053, -0.08501805365085602, 0.44399505853652954, -0.01635967195034027, 0.11958559602499008, -0.15692105889320374, 0.035112977027893066, 0.02268003113567829, -0.2298295795917511, -0.2002234011888504, 0.1273518204689026, 0.08675013482570648, 0.03894706070423126, 0.5457093715667725, 0.4330979585647583, -0.3231855034828186, -0.06676965951919556, 0.05591481924057007, -0.08944620192050934, -0.0214708149433136, -0.4871448874473572, -0.10072191059589386, -0.79640793800354, 0.056118473410606384, -0.14239713549613953, 0.032315127551555634, 0.3488163352012634, 0.006918898317962885, 0.03140336647629738, -0.0791211873292923, 0.2840977907180786, 0.2211357057094574, -0.23765909671783447, 0.050915781408548355, -0.004455506801605225, 0.21785174310207367, 0.11552175134420395, -0.12950171530246735, 0.3466174602508545], [-0.019053500145673752, 0.12561509013175964, -0.04110642522573471, -0.3683481514453888, 0.025746524333953857, 0.1854683756828308, -0.2362721860408783, 0.0627102255821228, 0.04425465688109398, -0.16356363892555237, -0.1600164920091629, -0.08319468796253204, -0.14276279509067535, 0.07015736401081085, -0.833906888961792, 0.05110745131969452, -1.1984035968780518, -0.17684237658977509, 0.042188532650470734, 0.10615667700767517, 0.10476616024971008, 0.1682608425617218, -0.24267935752868652, -0.2696802616119385, -0.02837727963924408, 0.03479323536157608, 0.1349729299545288, -0.2540876865386963, 0.09548631310462952, -0.004456216003745794, 0.08320476114749908, -0.04332007095217705, -0.058588702231645584, -0.06400040537118912, 0.04663531854748726, -0.026396388188004494, 0.10364299267530441, 0.027463536709547043, -0.6475628614425659, -0.6715117692947388, -0.10218191891908646, 0.11612096428871155, 0.06436605751514435, 0.07674320042133331, -0.059801846742630005, -0.020973410457372665, -0.1251492202281952, 0.1180659756064415, 0.0836380198597908, 0.04221309348940849, 0.2794312834739685, -0.06506705284118652, 0.018589027225971222, 0.05102672800421715, 0.012559871189296246, -1.1189824342727661, -0.23521196842193604, -0.04708266630768776, 0.10379614681005478, 0.0613047294318676, 0.017836445942521095, 0.06848840415477753, -0.05078549310564995, 0.01655534654855728], [-0.011789729818701744, 0.2592087388038635, -0.2823171019554138, 0.621817946434021, 0.02766801416873932, -0.0577830895781517, 0.3020588159561157, 0.04856334626674652, -0.17207297682762146, 0.44746455550193787, 0.2244958132505417, -0.20879384875297546, -0.055329371243715286, -0.21040961146354675, 0.8972075581550598, -0.5920462012290955, 1.2589092254638672, -0.2974548637866974, 0.02470278926193714, 0.07538057863712311, 0.05680033937096596, -0.13356903195381165, -0.43035224080085754, 0.22428342700004578, -0.027089595794677734, -0.1223040521144867, 0.017913222312927246, -0.11547458916902542, 0.00440701050683856, 0.05522824078798294, 0.10433778911828995, -0.12746703624725342, 0.010934623889625072, 0.2436489462852478, -0.027312317863106728, -0.007715707179158926, 0.13870757818222046, 0.07383079826831818, 0.68582683801651, 0.7839820981025696, -0.509954035282135, 0.034301284700632095, -0.005793705582618713, 0.0747101902961731, 0.10496480762958527, -0.19720427691936493, -0.10194070637226105, -0.4887399971485138, -0.11251142621040344, 0.1415463089942932, -0.09062916040420532, 0.35688579082489014, -0.34890511631965637, 0.08129837363958359, -0.17613816261291504, 1.074235200881958, 0.11652173846960068, -0.08791335672140121, -0.27203643321990967, 0.00659521296620369, 0.07995487749576569, -0.2426120638847351, -0.11083238571882248, 0.27602216601371765], [-0.022125082090497017, -0.13909684121608734, 0.05670025572180748, 0.008364924229681492, 0.0189971923828125, -0.12101210653781891, 0.045688752084970474, 0.022549569606781006, -0.09600476175546646, -0.06525799632072449, -0.12706506252288818, -0.10724300146102905, -0.11823447048664093, 0.06887495517730713, 0.01765691675245762, -0.07974852621555328, -0.059974588453769684, 0.00826957356184721, 0.005932405591011047, -0.06282927095890045, -0.06424267590045929, 0.0801222026348114, -0.052429378032684326, 0.03588154911994934, -0.05312086641788483, -0.005979901645332575, 0.07714167982339859, -0.0365886390209198, 0.07706780731678009, 0.02417723275721073, -0.007500526029616594, -0.10031899809837341, 0.038391802459955215, -0.07082667946815491, 0.0018423852743580937, 0.09603844583034515, 0.003072821069508791, 0.0857001394033432, 0.08787158876657486, -0.10923229902982712, -0.04518338665366173, -0.03221955895423889, -0.07312662899494171, -0.05699630081653595, 0.11086452007293701, 0.0017835673643276095, 0.12462231516838074, 0.0730888843536377, 0.02007657289505005, 0.06167947128415108, 0.06464307010173798, 0.08603475242853165, -0.04000532999634743, -0.03666104003787041, 0.016167759895324707, 0.01365752425044775, -0.07033531367778778, 0.016502853482961655, -0.07192812114953995, 0.03862367197871208, 0.01025805901736021, 0.016060009598731995, -0.08733941614627838, 0.08782139420509338], [0.4951227009296417, 0.22960403561592102, -0.19338874518871307, 0.6961625814437866, -0.10468548536300659, 0.011241634376347065, 0.5357748866081238, 0.08378864824771881, -0.2613210082054138, 0.5465940237045288, 0.19903601706027985, -0.16061723232269287, -0.18273049592971802, 0.2005920112133026, 0.752521276473999, -0.14730064570903778, 1.1624598503112793, 0.008649659343063831, -0.094073586165905, -0.015787169337272644, 0.12899860739707947, -0.2144293338060379, -0.5677118897438049, -0.12579825520515442, 0.12223732471466064, -0.29934483766555786, 0.11392530798912048, 0.20244354009628296, -0.02209850586950779, 0.11411958932876587, -0.15284892916679382, -0.04014131426811218, -0.1030011847615242, 0.07076534628868103, 0.011646154336631298, 0.17310790717601776, -0.04872377589344978, 0.09457781910896301, 0.7522534728050232, 0.5729065537452698, -0.23686344921588898, -0.01697700470685959, -0.004944607615470886, 0.05031116306781769, 0.07938443124294281, -0.30416736006736755, 0.030908290296792984, -0.6314836144447327, -0.0707545056939125, 0.03723812848329544, -0.12049012631177902, 0.2651192545890808, -0.08446254581212997, 0.07750017940998077, -0.09727588295936584, 0.9594326615333557, 0.05838927999138832, -0.14242804050445557, 0.01583997905254364, 0.016138801351189613, 0.05879988148808479, 0.009144705720245838, -0.01088299136608839, 0.18065591156482697], [0.058169081807136536, 0.009377713315188885, -0.038250427693128586, 0.04298923909664154, -0.09460562467575073, 0.075566366314888, 0.04905962944030762, 0.04478435218334198, 0.0319182313978672, -0.09516104310750961, -0.005616786889731884, 0.01968424953520298, -0.05832679569721222, 0.027886204421520233, 0.024724459275603294, 0.07320083677768707, 0.019524410367012024, -0.09372775256633759, -0.029693514108657837, 0.006207823753356934, 0.03109915740787983, 0.05942738056182861, 0.09925048053264618, 0.09207810461521149, 0.09010212123394012, -0.01900859735906124, 0.0057169292122125626, -0.09439467638731003, 0.03577625751495361, -0.1157144159078598, -0.08658463507890701, 0.023067772388458252, -0.011165346018970013, 0.09026884287595749, -0.12231240421533585, -0.09371325373649597, 0.08497431874275208, -0.05612744390964508, -0.09569619596004486, 0.04212525114417076, -0.09495294839143753, -0.026123568415641785, 0.033612459897994995, -0.0801924467086792, 0.11257275938987732, -0.06295333802700043, -0.11178812384605408, -0.08787008374929428, -0.03486012667417526, 0.06994839012622833, -0.019025936722755432, -0.019177712500095367, -0.10810358077287674, 0.10281535983085632, 0.11329497396945953, 0.006971880793571472, 0.06607358157634735, -0.07140719890594482, 0.09554717689752579, -0.09864693880081177, 0.02508305199444294, -0.037077389657497406, -0.09242922812700272, -0.10668972134590149], [0.09506642073392868, -0.019667163491249084, 0.05880264565348625, 0.12085816264152527, -0.06118948757648468, 0.1139955073595047, 0.020857274532318115, 0.05067695677280426, -0.05482704937458038, 0.01626095175743103, -0.10892988741397858, -0.01738843321800232, -0.07301843911409378, 0.12007781118154526, -0.09485942125320435, -0.014079123735427856, 0.05436423420906067, 0.08303382992744446, -0.004962638020515442, -0.08276651799678802, -0.12897811830043793, 0.10889236629009247, -0.06089160591363907, -0.008524969220161438, 0.08314773440361023, 0.08701799809932709, 0.008254319429397583, -0.11320902407169342, -0.017071440815925598, -0.09701671451330185, 0.10548792034387589, -0.0014455914497375488, 0.017321862280368805, -0.06968281418085098, -0.07239577174186707, -0.06764612346887589, -0.03277607262134552, -0.08315493166446686, -0.008446797728538513, -0.09801024198532104, -0.13113483786582947, -0.00816257018595934, -0.1112988293170929, 0.017292022705078125, 0.08980387449264526, 0.0439731702208519, 0.060079678893089294, -0.12196239829063416, 0.034944623708724976, 0.07336890697479248, -0.017463982105255127, 0.07996127009391785, 0.10889386385679245, -0.004046052694320679, 0.03993349149823189, -0.04711218178272247, 0.06978236138820648, 0.0427778959274292, 0.09253577888011932, -0.06507735699415207, -0.010762825608253479, 0.02180200256407261, -0.087654709815979, 0.08997273445129395], [-0.17901869118213654, -0.07254483550786972, 0.06734774261713028, -0.6033258438110352, 0.1066826581954956, 0.012352249585092068, -0.5355605483055115, -0.0020734667778015137, 0.05797160789370537, -0.3382994830608368, -0.3227555453777313, 0.040392063558101654, -0.06022213026881218, -0.1250678449869156, -0.6512770056724548, 0.061788104474544525, -1.0469125509262085, -0.19500377774238586, 0.3551175594329834, 0.00034546852111816406, 0.1844433844089508, 0.06548002362251282, -0.23030902445316315, -0.12834638357162476, 0.025725021958351135, -0.1130082979798317, 0.05742513760924339, -0.3736107051372528, -0.009687581099569798, 0.1189146339893341, 0.17758573591709137, 0.0829581618309021, 0.13390357792377472, 0.15272466838359833, 0.19627739489078522, 0.19247642159461975, 0.08243300020694733, -0.06674909591674805, -0.8331101536750793, -0.16280993819236755, 0.01841440424323082, 0.15643535554409027, -0.07293765246868134, -0.0603199303150177, -0.0451662540435791, -0.079233817756176, 0.07028170675039291, 0.040959689766168594, 0.04864328354597092, 0.2234807014465332, 0.15514081716537476, -0.12439398467540741, -0.03552239015698433, 0.020967870950698853, 0.05790598690509796, -0.6573541164398193, -0.18482956290245056, 0.11969302594661713, -0.03538576886057854, 0.10545598715543747, -0.02503144182264805, -0.02980024367570877, 0.0514739453792572, -0.037860527634620667], [-0.04776153340935707, 0.0793406143784523, 0.017252439633011818, -0.021081775426864624, -0.03955547511577606, 0.081684410572052, -0.021647125482559204, 0.09968340396881104, 0.08118221908807755, -0.10404114425182343, 0.04338115453720093, 0.016135720536112785, -0.05644974485039711, 0.005157247185707092, 0.02553318440914154, -0.08245477080345154, -0.11748351156711578, -0.01920766942203045, -0.037731900811195374, 0.033130109310150146, -0.08360635489225388, -0.01922433078289032, -0.04175405949354172, 0.07263945043087006, -0.04439722001552582, 0.10233967006206512, 0.003601777832955122, -0.007984012365341187, -0.003064870834350586, 0.022226804867386818, -0.09061276912689209, -0.11279445886611938, -0.07719729095697403, 0.03606871888041496, -0.12624818086624146, -0.059160832315683365, -0.07068715244531631, -0.006231233477592468, -0.09657615423202515, -0.07797343283891678, 0.07029398530721664, -0.13627803325653076, -0.10331757366657257, 0.017120450735092163, 0.12463265657424927, -0.00822220928966999, -0.09238778054714203, 0.08692595362663269, -0.006847803480923176, -0.11077357083559036, -0.04875180125236511, 0.05466470122337341, 0.058425962924957275, -0.002848688280209899, 0.0443732813000679, 0.09176073968410492, 0.1179855465888977, -0.06694886088371277, -0.12220241874456406, 0.07364828139543533, -0.00421963632106781, -0.04032406583428383, 0.07948704063892365, -0.11572840809822083], [-0.577908992767334, -0.16148315370082855, 0.11445359140634537, -0.4710979163646698, 0.11409185826778412, 0.035774920135736465, -0.5660374760627747, 0.081189826130867, -0.04922761768102646, -0.2282027006149292, -0.12656782567501068, 0.10323042422533035, -0.4171547293663025, 0.08623453974723816, -0.5404333472251892, -0.00338751426897943, -0.4131854772567749, -0.07824154943227768, 0.036384083330631256, 0.014826595783233643, 0.1921778917312622, 0.19458797574043274, -0.661914587020874, -0.20648424327373505, 0.09710575640201569, -0.068841852247715, 0.16660718619823456, -0.38824307918548584, 0.1033092811703682, 0.13806620240211487, 0.13501295447349548, 0.051062434911727905, 0.1067473292350769, 0.25983932614326477, 0.20863759517669678, 0.0736764594912529, 0.20485709607601166, -0.09069114923477173, -0.5027822852134705, -0.007998854853212833, -0.08146806806325912, 0.007179880514740944, 0.013110101222991943, -0.09230518341064453, 0.04271230101585388, 0.09721707552671432, 0.07170979678630829, 0.14197811484336853, 0.014347772113978863, 0.11267995089292526, -0.0578501857817173, -0.0912867933511734, 0.025737930089235306, -0.013560567982494831, 0.07921042293310165, -0.24142690002918243, -0.3216386139392853, 0.167891725897789, -0.062214747071266174, 0.1569950431585312, 0.144990012049675, 0.07839036732912064, 0.25350210070610046, -0.18242233991622925], [0.3131488561630249, -0.051074109971523285, 0.1458894908428192, 0.4473506510257721, 0.08614937961101532, -0.19750723242759705, 0.4467301368713379, 0.04138451814651489, -0.05820956453680992, 0.16450351476669312, 0.20912747085094452, -0.1056223139166832, 0.19566579163074493, 0.06386110186576843, 0.7449876666069031, -0.15414392948150635, 1.3270769119262695, 0.026065785437822342, -0.2389151155948639, -0.06271865963935852, 0.08754510432481766, -0.14213965833187103, 0.33599382638931274, 0.09978949278593063, -0.06437443196773529, -0.02814878337085247, 0.041215017437934875, 0.12102499604225159, -0.07954887300729752, 0.08873844891786575, -0.06115613877773285, -0.0962095782160759, 0.17946398258209229, -0.07040569186210632, 0.08655645698308945, 0.025026345625519753, 0.041545674204826355, 0.07085555046796799, 0.6609708666801453, 0.6181362271308899, -0.030253812670707703, 0.1203736737370491, -0.09366479516029358, -0.050932884216308594, -0.02918604016304016, 0.028110379353165627, -0.02132284827530384, 0.045196544378995895, -0.03254535049200058, -0.05286751314997673, -0.2407335638999939, -0.05069728195667267, -0.004513022489845753, 0.14628693461418152, 0.17779409885406494, 0.7965367436408997, 0.2049253284931183, 0.06540191173553467, 0.044351764023303986, -0.10307711362838745, 0.003961600828915834, -0.023788979277014732, 0.08233866840600967, -0.0022862176410853863], [-0.03506666421890259, 0.06349468976259232, -0.016078036278486252, -0.09651347994804382, 0.005640432238578796, -0.08763942122459412, -0.009225860238075256, -0.019527822732925415, 0.11047032475471497, -0.050911083817481995, -0.12042951583862305, -0.08449920266866684, -0.06872748583555222, 0.07281439751386642, -0.09211060404777527, -0.1112687811255455, -0.021146327257156372, -0.060999006032943726, -0.06534512341022491, -0.060954153537750244, -0.03141728416085243, 0.01114608347415924, -0.03653433173894882, -0.09837503731250763, -0.12017670273780823, 0.07333746552467346, 0.023602155968546867, 0.03897693753242493, 0.017451787367463112, 0.03889455273747444, -0.035356197506189346, 0.08475518226623535, 0.06068655103445053, 0.07669337093830109, -0.00032871103030629456, -0.08888178318738937, -0.10561364889144897, 0.10888810455799103, 0.1188305914402008, -0.07218323647975922, 0.10720983892679214, 0.06855045258998871, 0.09200645983219147, -0.06017197668552399, 0.002427831292152405, -0.10967954248189926, 0.058174341917037964, 0.0001258706906810403, 0.08121167123317719, 0.06114412471652031, -0.0060617029666900635, -0.07100366055965424, 0.029920779168605804, 0.09617894142866135, -0.10700017213821411, 0.10889695584774017, 0.10020360350608826, -0.06697296351194382, -0.06925146281719208, -0.08596289157867432, 0.0028238375671207905, 0.004288613796234131, 0.08067671954631805, -0.08734536170959473], [-0.02491872012615204, -0.032344140112400055, 0.044623810797929764, -0.11704273521900177, -0.11399959027767181, 0.025576159358024597, 0.026106640696525574, 0.11984151601791382, 0.031818095594644547, -0.12964613735675812, 0.06377902626991272, -0.07672178745269775, -0.05627056583762169, -0.0022916942834854126, 0.09980655461549759, -0.07936909794807434, 0.04748372733592987, 0.07757391035556793, 0.11611683666706085, -0.0037809014320373535, -0.09669139236211777, 0.08910077810287476, 0.00790664553642273, -0.10616019368171692, -0.03641842305660248, -0.02111927606165409, 0.0909971073269844, -0.013253316283226013, -0.042732931673526764, -0.1123548299074173, 0.057896729558706284, -0.009675949811935425, 0.01983570121228695, -0.06900064647197723, 0.056337740272283554, 0.101451575756073, -0.005875684786587954, 0.10017496347427368, 0.025706782937049866, -0.003275581868365407, -0.07388775795698166, -0.11018142849206924, -0.10276548564434052, -0.09527063369750977, 0.05298495292663574, 0.10015853494405746, -0.02407047152519226, -0.021630730479955673, 0.03824348747730255, 0.07336995005607605, -0.028068959712982178, 0.11695941537618637, -0.07641838490962982, -0.07773074507713318, 0.11462212353944778, -0.09870487451553345, 0.06297941505908966, -0.047890134155750275, -0.030524004250764847, 0.03367654234170914, 0.06097787246108055, -0.004564562812447548, 0.09308037906885147, 0.041122280061244965], [-0.20929419994354248, -0.05104755237698555, 0.06045817211270332, -0.3761361539363861, 0.0209188312292099, 0.04326320067048073, -1.0671451091766357, -0.030530676245689392, -0.021061500534415245, -0.2657909691333771, -0.21370966732501984, -0.059453804045915604, -0.17178761959075928, 0.0419030524790287, -1.1088768243789673, -0.03576040267944336, -0.9948437809944153, -0.12998442351818085, -0.2007133662700653, 0.09530629217624664, 0.06994711607694626, -0.09008263796567917, -0.12927964329719543, -0.1473725587129593, 0.12003234028816223, -0.0008588412310928106, -0.01978052780032158, -0.3925754427909851, 0.15251313149929047, 0.13553276658058167, -0.01739952526986599, 0.009552447125315666, 0.06836286187171936, 0.26624763011932373, 0.09404568374156952, 0.12029503285884857, 0.17377115786075592, -0.08616159856319427, -1.158437728881836, -0.6326472163200378, -0.1447405368089676, -0.08801811933517456, -0.030098482966423035, -0.01986260712146759, 0.05108730494976044, 0.134429469704628, 0.0905996561050415, 0.07096251100301743, -0.1003992110490799, 0.0504741407930851, 0.15539151430130005, -0.15516526997089386, 0.018920356407761574, -0.11609195917844772, 0.11812132596969604, -0.9199353456497192, -0.13984975218772888, 0.07108484208583832, 0.09720350056886673, -0.017562534660100937, -0.10381769388914108, 0.13330787420272827, -0.06049470230937004, 0.04325474053621292], [0.02203032746911049, -0.05530766397714615, 0.10410553961992264, -0.2810142934322357, 0.07709309458732605, 0.10958338528871536, -0.10494989156723022, -0.12257643043994904, 0.14372208714485168, -0.10450291633605957, -0.044825103133916855, 0.08606693893671036, -0.22696803510189056, 0.042446523904800415, -0.03229900076985359, -0.03903380036354065, 0.137289896607399, -0.01658196561038494, -0.2966558337211609, 0.09695807099342346, 0.025671683251857758, 0.16585421562194824, -0.09328223764896393, -0.3520278036594391, -0.028259918093681335, -0.111692875623703, 0.12921962141990662, -0.1416914314031601, 0.0555211566388607, 0.18278178572654724, 0.1862051784992218, 0.11189527809619904, 0.06962701678276062, 0.30992591381073, 0.14371027052402496, 0.04874739795923233, 0.2443172037601471, -0.027706919237971306, -0.10720747709274292, -0.0018910859944298863, -0.020694542676210403, 0.12021807581186295, -0.10125309228897095, 0.050461068749427795, -0.08278562128543854, -0.04203583672642708, -0.13032996654510498, 0.015432631596922874, -0.13470648229122162, 0.0303813349455595, -0.07672618329524994, -0.04092160239815712, 0.004637864418327808, 0.15379346907138824, 0.004591305740177631, -0.17386426031589508, 0.043485403060913086, 0.15073077380657196, -0.036656446754932404, 0.08727310597896576, 0.11789598315954208, -0.017357084900140762, 0.12383592128753662, 0.09960979223251343], [0.08645143359899521, -0.10549961775541306, 0.036691829562187195, -0.07135020941495895, -0.042879924178123474, 0.02355591207742691, 0.04241231083869934, 0.06582196056842804, 0.029883934184908867, -0.03519468009471893, 0.0033023208379745483, 0.014699413441121578, -0.12844239175319672, -0.022072670981287956, 0.023863792419433594, -0.013740756548941135, -0.014361932873725891, 0.07655739039182663, -0.07852970063686371, -0.00970470905303955, 0.009520863182842731, 0.037406012415885925, -0.10365935415029526, -0.02026432380080223, -0.033771365880966187, 0.019328786060214043, -0.0793759673833847, 0.10398032516241074, 0.05413239076733589, -0.057244304567575455, -0.09236838668584824, 0.08526694774627686, 0.09408155828714371, 0.11749439686536789, 0.060311347246170044, -0.0017981179989874363, -0.02445456199347973, -0.040978074073791504, 0.0218467116355896, -0.020024124532938004, 0.04795128107070923, 0.01812177710235119, 0.0005423128604888916, -0.07688039541244507, 0.05623506009578705, 0.08254996687173843, 0.08866269886493683, -0.0701906830072403, 0.06843725591897964, 0.01911395788192749, 0.07606624066829681, -0.0420631468296051, -0.079649418592453, 0.04756652191281319, 0.012638387270271778, 0.010617688298225403, -0.033163364976644516, -0.03287654370069504, -0.06626265496015549, -0.07120765745639801, -0.044988032430410385, -0.12936636805534363, -0.08269166946411133, -0.04767116904258728], [0.09175121784210205, 0.11783479154109955, -0.12112578749656677, -0.006937280297279358, -0.032626211643218994, 0.0012247860431671143, 0.03974731266498566, 0.0538274347782135, -0.007163092494010925, 0.10964302718639374, -0.10289745032787323, -0.07513454556465149, -0.07973119616508484, 0.058892473578453064, 0.07108481228351593, -0.05864076316356659, -0.0961703360080719, -0.03310905396938324, 0.02819085121154785, 0.04004424810409546, -0.03221239149570465, -0.01931387186050415, 0.048379018902778625, 0.04201944172382355, 0.0692981481552124, 0.10270735621452332, 0.08283406496047974, -0.011597812175750732, -0.09081298112869263, 0.03531262278556824, 0.09023226797580719, -0.04229496419429779, 0.08396711945533752, 0.01648390293121338, 0.03205978870391846, -0.029657989740371704, -0.006505846977233887, 0.07848609983921051, -0.014400586485862732, -0.09774483740329742, 0.11049093306064606, -0.12384408712387085, -0.10234041512012482, 0.03611108660697937, -0.09838986396789551, 0.0645170509815216, -0.008373960852622986, 0.07143233716487885, 0.0028781145811080933, 0.09925195574760437, -0.006721988320350647, 0.08820511400699615, -0.11156101524829865, 0.0353194922208786, -0.11217750608921051, 0.11637888848781586, 0.0016177445650100708, 0.12364040315151215, -0.10640618205070496, 0.07068520784378052, 0.0714469850063324, 0.09748883545398712, 0.08215859532356262, -0.09659512341022491], [-0.15784119069576263, -0.08069431781768799, 0.10125732421875, -0.46895575523376465, 0.09026522934436798, 0.13941267132759094, -0.5505328178405762, -0.040915340185165405, 0.060403887182474136, -0.368052214384079, -0.19309939444065094, 0.08069410175085068, -0.08007936179637909, -0.1014319658279419, -0.42110955715179443, 0.09955734759569168, -0.46510493755340576, -0.20669017732143402, 0.2753854990005493, -0.08344969153404236, 0.05110443755984306, 0.022173045203089714, -0.31035515666007996, 0.04589366540312767, 0.11404186487197876, 0.015784675255417824, 0.20830006897449493, -0.5242524743080139, 0.01602613925933838, 0.1252879500389099, 0.13801386952400208, -0.043953023850917816, 0.07030709087848663, 0.1356683075428009, 0.027153288945555687, 0.061391931027173996, 0.029231660068035126, -0.08081050962209702, -0.5566791892051697, -0.014156433753669262, -0.053940922021865845, 0.09389302134513855, -0.056020066142082214, 0.043937116861343384, 0.0035333484411239624, 0.009890786372125149, 0.08774111419916153, 0.07603548467159271, 0.048974454402923584, 0.2735692858695984, 0.10492731630802155, -0.027808237820863724, 0.12483478337526321, -0.021082773804664612, 0.08657572418451309, -0.4195328652858734, -0.37476983666419983, 0.2522006034851074, 0.013570502400398254, -0.02512195147573948, 0.13042353093624115, -0.011014878749847412, 0.13344231247901917, -0.03401641175150871], [0.04313921928405762, -0.05648846924304962, 0.09109479188919067, 0.07050862163305283, 0.08147238194942474, -0.06677234172821045, 0.05289052426815033, 0.09062428772449493, -0.13438676297664642, 0.05371423065662384, -0.04969695210456848, 0.0031066257506608963, 0.06751632690429688, 0.015378350391983986, 0.04627005755901337, 0.06594541668891907, -0.1269289255142212, -0.12515267729759216, -0.01112622581422329, -0.10556676983833313, -0.03261222690343857, 0.05919197201728821, -0.12335401028394699, -0.036910831928253174, -0.018071576952934265, -0.06882726401090622, -0.07261165976524353, -0.057014867663383484, 0.056013163179159164, -0.09104204922914505, -0.13253481686115265, 0.06118394434452057, -0.05789698660373688, 0.07524280995130539, -0.021262332797050476, 0.08638602495193481, -0.03473326191306114, -0.04848115146160126, -0.04191071540117264, 0.10700640082359314, -0.08850178867578506, -0.12537343800067902, 0.11018101871013641, 0.1213851124048233, -0.09438210725784302, 0.02219308912754059, 0.06039494276046753, -0.11051474511623383, -0.04823856055736542, 0.0035942592658102512, -0.11826159060001373, 0.05656459927558899, -0.10507369786500931, -0.1240072026848793, -0.1253727823495865, -0.057433802634477615, 0.11642350256443024, -0.005672002676874399, -0.12623310089111328, 0.09684626758098602, 0.10483937710523605, -0.0391995795071125, -0.068023182451725, -0.07650987803936005], [-0.025160059332847595, -0.017151126638054848, -0.02522171661257744, 0.06183247268199921, 0.06877556443214417, -0.06649038195610046, -0.057321250438690186, 0.01931944489479065, 0.040648844093084335, -0.08927035331726074, 0.06474015861749649, -0.10363743454217911, 0.05716075003147125, -0.12672153115272522, -0.07689176499843597, 0.07244917750358582, 0.07787469029426575, 0.08659723401069641, 0.03152751922607422, 0.07347629964351654, -0.12094007432460785, 0.033632293343544006, -0.010146094486117363, -0.053619176149368286, 0.034990981221199036, 0.004642574116587639, -0.07615876197814941, -0.06875522434711456, 0.11319956183433533, 0.02676565758883953, -0.049756214022636414, 0.01550254225730896, -0.0765877366065979, -0.07025810331106186, -0.063224196434021, -0.05264877900481224, 0.05582154542207718, -0.10069045424461365, 0.03444787859916687, -0.018931398168206215, -0.11159513890743256, -0.10892937332391739, -0.09391084313392639, -0.04077178239822388, 0.11317263543605804, 0.10733063519001007, 0.05365784466266632, 0.06464610993862152, 0.09609975665807724, 0.09461569786071777, 0.07113640010356903, 0.11830675601959229, -0.044130921363830566, 0.10233042389154434, 0.044019218534231186, 0.12000593543052673, -0.08214297890663147, 0.03599835932254791, 0.002460251096636057, 0.05303991213440895, -0.06525492668151855, 0.09439904987812042, -0.01787405274808407, 0.05059768259525299], [-0.008113599382340908, -0.39969730377197266, 0.07057204097509384, -1.1499335765838623, -0.07843318581581116, 0.08562806993722916, -0.7137361764907837, 0.03819429874420166, 0.07728959619998932, -1.4756323099136353, -0.7975562810897827, 0.17891624569892883, 0.1391957551240921, -0.1969723403453827, -1.6567280292510986, 0.12165042757987976, -2.0860352516174316, -0.1382352113723755, -0.0713287740945816, -0.0005869865417480469, -0.041623398661613464, 0.1977495402097702, 0.19486144185066223, 0.07594889402389526, 0.026546478271484375, 0.15773728489875793, 0.035343997180461884, -0.41704195737838745, 0.1849176585674286, -0.02162136696279049, 